{"learner":{"attributes":{"scikit_learn":"{\"_estimator_type\": \"classifier\"}"},"feature_names":["pkts","bytes","seq","dur","mean","stddev","sum","min","max","spkts","dpkts","sbytes","dbytes","rate","srate","drate"],"feature_types":["int","int","int","float","float","float","float","float","float","int","int","int","int","float","float","float"],"gradient_booster":{"model":{"cats":{"enc":[],"feature_segments":[],"sorted_idx":[]},"gbtree_model_param":{"num_parallel_tree":"1","num_trees":"300"},"iteration_indptr":[0,3,6,9,12,15,18,21,24,27,30,33,36,39,42,45,48,51,54,57,60,63,66,69,72,75,78,81,84,87,90,93,96,99,102,105,108,111,114,117,120,123,126,129,132,135,138,141,144,147,150,153,156,159,162,165,168,171,174,177,180,183,186,189,192,195,198,201,204,207,210,213,216,219,222,225,228,231,234,237,240,243,246,249,252,255,258,261,264,267,270,273,276,279,282,285,288,291,294,297,300],"tree_info":[0,1,2,0,1,2,0,1,2,0,1,2,0,1,2,0,1,2,0,1,2,0,1,2,0,1,2,0,1,2,0,1,2,0,1,2,0,1,2,0,1,2,0,1,2,0,1,2,0,1,2,0,1,2,0,1,2,0,1,2,0,1,2,0,1,2,0,1,2,0,1,2,0,1,2,0,1,2,0,1,2,0,1,2,0,1,2,0,1,2,0,1,2,0,1,2,0,1,2,0,1,2,0,1,2,0,1,2,0,1,2,0,1,2,0,1,2,0,1,2,0,1,2,0,1,2,0,1,2,0,1,2,0,1,2,0,1,2,0,1,2,0,1,2,0,1,2,0,1,2,0,1,2,0,1,2,0,1,2,0,1,2,0,1,2,0,1,2,0,1,2,0,1,2,0,1,2,0,1,2,0,1,2,0,1,2,0,1,2,0,1,2,0,1,2,0,1,2,0,1,2,0,1,2,0,1,2,0,1,2,0,1,2,0,1,2,0,1,2,0,1,2,0,1,2,0,1,2,0,1,2,0,1,2,0,1,2,0,1,2,0,1,2,0,1,2,0,1,2,0,1,2,0,1,2,0,1,2,0,1,2,0,1,2,0,1,2,0,1,2,0,1,2,0,1,2,0,1,2,0,1,2,0,1,2,0,1,2,0,1,2,0,1,2,0,1,2,0,1,2],"trees":[{"base_weights":[4.367338E-5,-7.4563575E-1,1.4995128E-1,1.3713904E-1,-7.491639E-1,-7.499004E-2,1.0344573E-1],"categories":[],"categories_nodes":[],"categories_segments":[],"categories_sizes":[],"default_left":[0,0,0,0,0,0,0],"id":0,"left_children":[1,3,-1,-1,5,-1,-1],"loss_changes":[1.1383902E4,5.1816895E1,0E0,0E0,9.693359E0,0E0,0E0],"parents":[2147483647,0,0,1,1,4,4],"right_children":[2,4,-1,-1,6,-1,-1],"split_conditions":[3.6E2,3.08E2,1.4995128E-1,1.3713904E-1,1.473E3,-7.499004E-2,1.0344573E-1],"split_indices":[12,1,0,0,1,0,0],"split_type":[0,0,0,0,0,0,0],"sum_hessian":[1.017926E4,6.7987656E3,3.3804937E3,1.0666822E1,6.7880986E3,6.7858765E3,2.2222545E0],"tree_param":{"num_deleted":"0","num_feature":"16","num_nodes":"7","size_leaf_vector":"1"}},{"base_weights":[-2.1837166E-5,1.4925318E0,-7.498839E-2,-6.857089E-2,1.49958E-1],"categories":[],"categories_nodes":[],"categories_segments":[],"categories_sizes":[],"default_left":[0,0,0,0,0],"id":1,"left_children":[1,3,-1,-1,-1],"loss_changes":[1.1394711E4,5.32959E1,0E0,0E0,0E0],"parents":[2147483647,0,0,1,1],"right_children":[2,4,-1,-1,-1],"split_conditions":[7E0,3.08E2,-7.498839E-2,-6.857089E-2,1.49958E-1],"split_indices":[0,1,0,0,0],"split_type":[0,0,0,0,0],"sum_hessian":[1.0179037E4,3.4035308E3,6.775506E3,1.0666589E1,3.392864E3],"tree_param":{"num_deleted":"0","num_feature":"16","num_nodes":"5","size_leaf_vector":"1"}},{"base_weights":[-2.1837166E-5,-7.498839E-2,1.4910691E0,1.49958E-1,-6.9599465E-2],"categories":[],"categories_nodes":[],"categories_segments":[],"categories_sizes":[],"default_left":[0,0,0,0,0],"id":2,"left_children":[1,-1,3,-1,-1],"loss_changes":[1.1383544E4,0E0,6.445654E1,0E0,0E0],"parents":[2147483647,0,0,2,2],"right_children":[2,-1,4,-1,-1],"split_conditions":[9.157107E0,-7.498839E-2,1.473E3,1.49958E-1,-6.9599465E-2],"split_indices":[6,0,1,0,0],"split_type":[0,0,0,0,0],"sum_hessian":[1.0179037E4,6.7732837E3,3.405753E3,3.392864E3,1.2888795E1],"tree_param":{"num_deleted":"0","num_feature":"16","num_nodes":"5","size_leaf_vector":"1"}},{"base_weights":[5.689597E-5,-7.1762544E-1,1.2981771E-1,1.20501116E-1,-7.211571E-1,-7.21898E-2,9.368371E-2],"categories":[],"categories_nodes":[],"categories_segments":[],"categories_sizes":[],"default_left":[0,0,0,0,0,0,0],"id":3,"left_children":[1,3,-1,-1,5,-1,-1],"loss_changes":[9.428142E3,4.5119873E1,0E0,0E0,8.667969E0,0E0,0E0],"parents":[2147483647,0,0,1,1,4,4],"right_children":[2,4,-1,-1,6,-1,-1],"split_conditions":[3.6E2,3.08E2,1.2981771E-1,1.20501116E-1,1.473E3,-7.21898E-2,9.368371E-2],"split_indices":[12,1,0,0,1,0,0],"split_type":[0,0,0,0,0,0,0],"sum_hessian":[1.0117964E4,6.515972E3,3.6019915E3,1.1323275E1,6.504649E3,6.5023076E3,2.341172E0],"tree_param":{"num_deleted":"0","num_feature":"16","num_nodes":"7","size_leaf_vector":"1"}},{"base_weights":[-2.8402073E-5,1.2924849E0,-7.2188504E-2,-6.60707E-2,1.2982167E-1],"categories":[],"categories_nodes":[],"categories_segments":[],"categories_sizes":[],"default_left":[0,0,0,0,0],"id":4,"left_children":[1,3,-1,-1,-1],"loss_changes":[9.441916E3,4.145752E1,0E0,0E0,0E0],"parents":[2147483647,0,0,1,1],"right_children":[2,4,-1,-1,-1],"split_conditions":[7E0,3.08E2,-7.2188504E-2,-6.60707E-2,1.2982167E-1],"split_indices":[0,1,0,0,0],"split_type":[0,0,0,0,0],"sum_hessian":[1.0117853E4,3.6254854E3,6.4923677E3,1.027378E1,3.6152114E3],"tree_param":{"num_deleted":"0","num_feature":"16","num_nodes":"5","size_leaf_vector":"1"}},{"base_weights":[-2.8449731E-5,-7.218871E-2,1.2913195E0,1.2982167E-1,-6.6933006E-2],"categories":[],"categories_nodes":[],"categories_segments":[],"categories_sizes":[],"default_left":[0,0,0,0,0],"id":5,"left_children":[1,-1,3,-1,-1],"loss_changes":[9.43343E3,0E0,4.9938965E1,0E0,0E0],"parents":[2147483647,0,0,2,2],"right_children":[2,-1,4,-1,-1],"split_conditions":[9.157107E0,-7.218871E-2,1.473E3,1.2982167E-1,-6.6933006E-2],"split_indices":[6,0,1,0,0],"split_type":[0,0,0,0,0],"sum_hessian":[1.0117854E4,6.490262E3,3.6275913E3,3.6152114E3,1.2379885E1],"tree_param":{"num_deleted":"0","num_feature":"16","num_nodes":"5","size_leaf_vector":"1"}},{"base_weights":[6.8779525E-5,-6.930457E-1,1.15217485E-1,1.0793644E-1,-6.965765E-1,-6.973222E-2,8.563208E-2],"categories":[],"categories_nodes":[],"categories_segments":[],"categories_sizes":[],"default_left":[0,0,0,0,0,0,0],"id":6,"left_children":[1,3,-1,-1,5,-1,-1],"loss_changes":[7.9453564E3,3.9629883E1,0E0,0E0,7.7773438E0,0E0,0E0],"parents":[2147483647,0,0,1,1,4,4],"right_children":[2,4,-1,-1,6,-1,-1],"split_conditions":[3.6E2,3.08E2,1.15217485E-1,1.0793644E-1,1.473E3,-6.973222E-2,8.563208E-2],"split_indices":[12,1,0,0,1,0,0],"split_type":[0,0,0,0,0,0,0],"sum_hessian":[9.947837E3,6.211411E3,3.7364265E3,1.1743399E1,6.1996675E3,6.1972427E3,2.4250283E0],"tree_param":{"num_deleted":"0","num_feature":"16","num_nodes":"7","size_leaf_vector":"1"}},{"base_weights":[-3.4315457E-5,1.1473403E0,-6.973122E-2,-6.3784026E-2,1.15219794E-1],"categories":[],"categories_nodes":[],"categories_segments":[],"categories_sizes":[],"default_left":[0,0,0,0,0],"id":7,"left_children":[1,3,-1,-1,-1],"loss_changes":[7.9602153E3,3.334912E1,0E0,0E0,0E0],"parents":[2147483647,0,0,1,1],"right_children":[2,4,-1,-1,-1],"split_conditions":[7E0,3.08E2,-6.973122E-2,-6.3784026E-2,1.15219794E-1],"split_indices":[0,1,0,0,0],"split_type":[0,0,0,0,0],"sum_hessian":[9.947785E3,3.7600146E3,6.187771E3,9.849882E0,3.7501648E3],"tree_param":{"num_deleted":"0","num_feature":"16","num_nodes":"5","size_leaf_vector":"1"}},{"base_weights":[-3.4373283E-5,-6.9731556E-2,1.1463737E0,1.15219794E-1,-6.453529E-2],"categories":[],"categories_nodes":[],"categories_segments":[],"categories_sizes":[],"default_left":[0,0,0,0,0],"id":8,"left_children":[1,-1,3,-1,-1],"loss_changes":[7.95355E3,0E0,4.001172E1,0E0,0E0],"parents":[2147483647,0,0,2,2],"right_children":[2,-1,4,-1,-1],"split_conditions":[9.157107E0,-6.9731556E-2,1.473E3,1.15219794E-1,-6.453529E-2],"split_indices":[6,0,1,0,0],"split_type":[0,0,0,0,0],"sum_hessian":[9.947787E3,6.1857886E3,3.7619983E3,3.7501648E3,1.1833429E1],"tree_param":{"num_deleted":"0","num_feature":"16","num_nodes":"5","size_leaf_vector":"1"}},{"base_weights":[7.971756E-5,-6.7142534E-1,1.04204E-1,9.815993E-2,-6.7495316E-1,-6.757041E-2,7.8904375E-2],"categories":[],"categories_nodes":[],"categories_segments":[],"categories_sizes":[],"default_left":[0,0,0,0,0,0,0],"id":9,"left_children":[1,3,-1,-1,5,-1,-1],"loss_changes":[6.78033E3,3.5027344E1,0E0,0E0,6.998535E0,0E0,0E0],"parents":[2147483647,0,0,1,1,4,4],"right_children":[2,4,-1,-1,6,-1,-1],"split_conditions":[3.6E2,3.08E2,1.04204E-1,9.815993E-2,1.473E3,-6.757041E-2,7.8904375E-2],"split_indices":[12,1,0,0,1,0,0],"split_type":[0,0,0,0,0,0,0],"sum_hessian":[9.688593E3,5.891861E3,3.796732E3,1.1956972E1,5.879904E3,5.8774272E3,2.4763725E0],"tree_param":{"num_deleted":"0","num_feature":"16","num_nodes":"7","size_leaf_vector":"1"}},{"base_weights":[-3.986294E-5,1.0378084E0,-6.756965E-2,-6.1691314E-2,1.0420525E-1],"categories":[],"categories_nodes":[],"categories_segments":[],"categories_sizes":[],"default_left":[0,0,0,0,0],"id":10,"left_children":[1,3,-1,-1,-1],"loss_changes":[6.795302E3,2.747754E1,0E0,0E0,0E0],"parents":[2147483647,0,0,1,1],"right_children":[2,4,-1,-1,-1],"split_conditions":[7E0,3.08E2,-6.756965E-2,-6.1691314E-2,1.0420525E-1],"split_indices":[0,1,0,0,0],"split_type":[0,0,0,0,0],"sum_hessian":[9.688559E3,3.8201094E3,5.8684487E3,9.403481E0,3.8107058E3],"tree_param":{"num_deleted":"0","num_feature":"16","num_nodes":"5","size_leaf_vector":"1"}},{"base_weights":[-3.992496E-5,-6.757008E-2,1.036983E0,1.0420527E-1,-6.2369872E-2],"categories":[],"categories_nodes":[],"categories_segments":[],"categories_sizes":[],"default_left":[0,0,0,0,0],"id":11,"left_children":[1,-1,3,-1,-1],"loss_changes":[6.7899424E3,0E0,3.2836426E1,0E0,0E0],"parents":[2147483647,0,0,2,2],"right_children":[2,-1,4,-1,-1],"split_conditions":[9.157107E0,-6.757008E-2,1.473E3,1.0420527E-1,-6.2369872E-2],"split_indices":[6,0,1,0,0],"split_type":[0,0,0,0,0],"sum_hessian":[9.688562E3,5.8665947E3,3.8219668E3,3.8107058E3,1.1260779E1],"tree_param":{"num_deleted":"0","num_feature":"16","num_nodes":"5","size_leaf_vector":"1"}},{"base_weights":[9.03774E-5,-6.5237033E-1,9.564733E-2,9.036829E-2,-6.558944E-1,-6.566512E-2,7.321259E-2],"categories":[],"categories_nodes":[],"categories_segments":[],"categories_sizes":[],"default_left":[0,0,0,0,0,0,0],"id":12,"left_children":[1,3,-1,-1,5,-1,-1],"loss_changes":[5.8411294E3,3.1106934E1,0E0,0E0,6.3129883E0,0E0,0E0],"parents":[2147483647,0,0,1,1,4,4],"right_children":[2,4,-1,-1,6,-1,-1],"split_conditions":[3.6E2,3.08E2,9.564733E-2,9.036829E-2,1.473E3,-6.566512E-2,7.321259E-2],"split_indices":[12,1,0,0,1,0,0],"split_type":[0,0,0,0,0,0,0],"sum_hessian":[9.358751E3,5.563532E3,3.7952188E3,1.1994492E1,5.5515376E3,5.5490396E3,2.4984841E0],"tree_param":{"num_deleted":"0","num_feature":"16","num_nodes":"7","size_leaf_vector":"1"}},{"base_weights":[-4.517526E-5,9.52683E-1,-6.566455E-2,-5.9772182E-2,9.564787E-2],"categories":[],"categories_nodes":[],"categories_segments":[],"categories_sizes":[],"default_left":[0,0,0,0,0],"id":13,"left_children":[1,3,-1,-1,-1],"loss_changes":[5.8556987E3,2.3046875E1,0E0,0E0,0E0],"parents":[2147483647,0,0,1,1],"right_children":[2,4,-1,-1,-1],"split_conditions":[7E0,3.08E2,-6.566455E-2,-5.9772182E-2,9.564787E-2],"split_indices":[0,1,0,0,0],"split_type":[0,0,0,0,0],"sum_hessian":[9.358706E3,3.818135E3,5.540571E3,8.942696E0,3.8091924E3],"tree_param":{"num_deleted":"0","num_feature":"16","num_nodes":"5","size_leaf_vector":"1"}},{"base_weights":[-4.520226E-5,-6.5665044E-2,9.519619E-1,9.564789E-2,-6.0405243E-2],"categories":[],"categories_nodes":[],"categories_segments":[],"categories_sizes":[],"default_left":[0,0,0,0,0],"id":14,"left_children":[1,-1,3,-1,-1],"loss_changes":[5.8513115E3,0E0,2.7432617E1,0E0,0E0],"parents":[2147483647,0,0,2,2],"right_children":[2,-1,4,-1,-1],"split_conditions":[9.157107E0,-6.5665044E-2,1.473E3,9.564789E-2,-6.0405243E-2],"split_indices":[6,0,1,0,0],"split_type":[0,0,0,0,0],"sum_hessian":[9.358708E3,5.5388438E3,3.8198647E3,3.8091924E3,1.0672457E1],"tree_param":{"num_deleted":"0","num_feature":"16","num_nodes":"5","size_leaf_vector":"1"}},{"base_weights":[1.0088339E-4,-6.3554496E-1,8.884518E-2,8.403432E-2,-6.3906574E-1,-6.39829E-2,6.833994E-2],"categories":[],"categories_nodes":[],"categories_segments":[],"categories_sizes":[],"default_left":[0,0,0,0,0,0,0],"id":15,"left_children":[1,3,-1,-1,5,-1,-1],"loss_changes":[5.069248E3,2.7729004E1,0E0,0E0,5.7070312E0,0E0,0E0],"parents":[2147483647,0,0,1,1,4,4],"right_children":[2,4,-1,-1,6,-1,-1],"split_conditions":[3.6E2,3.08E2,8.884518E-2,8.403432E-2,1.473E3,-6.39829E-2,6.833994E-2],"split_indices":[12,1,0,0,1,0,0],"split_type":[0,0,0,0,0,0,0],"sum_hessian":[8.975259E3,5.231922E3,3.7433367E3,1.1885598E1,5.220036E3,5.217541E3,2.4950085E0],"tree_param":{"num_deleted":"0","num_feature":"16","num_nodes":"7","size_leaf_vector":"1"}},{"base_weights":[-5.047449E-5,8.8499415E-1,-6.398251E-2,-5.8006532E-2,8.884524E-2],"categories":[],"categories_nodes":[],"categories_segments":[],"categories_sizes":[],"default_left":[0,0,0,0,0],"id":16,"left_children":[1,3,-1,-1,-1],"loss_changes":[5.0831406E3,1.9598633E1,0E0,0E0,0E0],"parents":[2147483647,0,0,1,1],"right_children":[2,4,-1,-1,-1],"split_conditions":[7E0,3.08E2,-6.398251E-2,-5.8006532E-2,8.884524E-2],"split_indices":[0,1,0,0,0],"split_type":[0,0,0,0,0],"sum_hessian":[8.975181E3,3.7655923E3,5.2095884E3,8.4748955E0,3.7571172E3],"tree_param":{"num_deleted":"0","num_feature":"16","num_nodes":"5","size_leaf_vector":"1"}},{"base_weights":[-5.037174E-5,-6.398302E-2,8.8435334E-1,8.884526E-2,-5.8613714E-2],"categories":[],"categories_nodes":[],"categories_segments":[],"categories_sizes":[],"default_left":[0,0,0,0,0],"id":17,"left_children":[1,-1,3,-1,-1],"loss_changes":[5.0795034E3,0E0,2.3235107E1,0E0,0E0],"parents":[2147483647,0,0,2,2],"right_children":[2,-1,4,-1,-1],"split_conditions":[9.157107E0,-6.398302E-2,1.473E3,8.884526E-2,-5.8613714E-2],"split_indices":[6,0,1,0,0],"split_type":[0,0,0,0,0],"sum_hessian":[8.975185E3,5.207989E3,3.7671956E3,3.7571177E3,1.0077852E1],"tree_param":{"num_deleted":"0","num_feature":"16","num_nodes":"5","size_leaf_vector":"1"}},{"base_weights":[1.1145733E-4,-6.2142676E-1,8.3240265E-1,7.8798E-2,-6.249509E-2,-4.4954266E-2,8.334239E-2],"categories":[],"categories_nodes":[],"categories_segments":[],"categories_sizes":[],"default_left":[0,0,0,0,0,0,0],"id":18,"left_children":[1,3,5,-1,-1,-1,-1],"loss_changes":[4.425618E3,2.481897E1,5.163086E0,0E0,0E0,0E0,0E0],"parents":[2147483647,0,0,1,1,2,2],"right_children":[2,4,6,-1,-1,-1,-1],"split_conditions":[3E0,3.08E2,7E0,7.8798E-2,-6.249509E-2,-4.4954266E-2,8.334239E-2],"split_indices":[10,1,0,0,0,0,0],"split_type":[0,0,0,0,0,0,0],"sum_hessian":[8.553212E3,4.896705E3,3.656507E3,1.1658038E1,4.885047E3,2.5609689E0,3.653946E3],"tree_param":{"num_deleted":"0","num_feature":"16","num_nodes":"7","size_leaf_vector":"1"}},{"base_weights":[-5.5810495E-5,8.3017707E-1,-6.249484E-2,-5.6375343E-2,8.333753E-2],"categories":[],"categories_nodes":[],"categories_segments":[],"categories_sizes":[],"default_left":[0,0,0,0,0],"id":19,"left_children":[1,3,-1,-1,-1],"loss_changes":[4.4384346E3,1.6848877E1,0E0,0E0,0E0],"parents":[2147483647,0,0,1,1],"right_children":[2,4,-1,-1,-1],"split_conditions":[7E0,3.08E2,-6.249484E-2,-5.6375343E-2,8.333753E-2],"split_indices":[0,1,0,0,0],"split_type":[0,0,0,0,0],"sum_hessian":[8.553089E3,3.672918E3,4.880171E3,8.006556E0,3.6649114E3],"tree_param":{"num_deleted":"0","num_feature":"16","num_nodes":"5","size_leaf_vector":"1"}},{"base_weights":[-5.5688357E-5,-6.2495377E-2,8.295996E-1,8.333756E-2,-5.6970816E-2],"categories":[],"categories_nodes":[],"categories_segments":[],"categories_sizes":[],"default_left":[0,0,0,0,0],"id":20,"left_children":[1,-1,3,-1,-1],"loss_changes":[4.4353877E3,0E0,1.9894287E1,0E0,0E0],"parents":[2147483647,0,0,2,2],"right_children":[2,-1,4,-1,-1],"split_conditions":[9.157107E0,-6.2495377E-2,1.473E3,8.333756E-2,-5.6970816E-2],"split_indices":[6,0,1,0,0],"split_type":[0,0,0,0,0],"sum_hessian":[8.553093E3,4.8786963E3,3.674397E3,3.6649119E3,9.485077E0],"tree_param":{"num_deleted":"0","num_feature":"16","num_nodes":"5","size_leaf_vector":"1"}},{"base_weights":[1.1577514E-4,-6.082464E-1,7.871964E-1,7.440535E-2,-6.1177034E-2,-4.3425944E-2,7.8815535E-2],"categories":[],"categories_nodes":[],"categories_segments":[],"categories_sizes":[],"default_left":[0,0,0,0,0,0,0],"id":21,"left_children":[1,3,5,-1,-1,-1,-1],"loss_changes":[3.8822378E3,2.224768E1,4.482422E0,0E0,0E0,0E0,0E0],"parents":[2147483647,0,0,1,1,2,2],"right_children":[2,4,6,-1,-1,-1,-1],"split_conditions":[3E0,3.08E2,7E0,7.440535E-2,-6.1177034E-2,-4.3425944E-2,7.8815535E-2],"split_indices":[10,1,0,0,0,0,0],"split_type":[0,0,0,0,0,0,0],"sum_hessian":[8.105757E3,4.572071E3,3.5336865E3,1.1337019E1,4.560734E3,2.4175851E0,3.5312688E3],"tree_param":{"num_deleted":"0","num_feature":"16","num_nodes":"7","size_leaf_vector":"1"}},{"base_weights":[-5.731032E-5,7.851191E-1,-6.1176807E-2,-5.4860998E-2,7.881137E-2],"categories":[],"categories_nodes":[],"categories_segments":[],"categories_sizes":[],"default_left":[0,0,0,0,0],"id":22,"left_children":[1,3,-1,-1,-1],"loss_changes":[3.8940654E3,1.4612305E1,0E0,0E0,0E0],"parents":[2147483647,0,0,1,1],"right_children":[2,4,-1,-1,-1],"split_conditions":[7E0,3.08E2,-6.1176807E-2,-5.4860998E-2,7.881137E-2],"split_indices":[0,1,0,0,0],"split_type":[0,0,0,0,0],"sum_hessian":[8.105554E3,3.5493787E3,4.556176E3,7.5431843E0,3.5418354E3],"tree_param":{"num_deleted":"0","num_feature":"16","num_nodes":"5","size_leaf_vector":"1"}},{"base_weights":[-5.842608E-5,-6.117734E-2,7.845917E-1,7.881114E-2,-5.544628E-2],"categories":[],"categories_nodes":[],"categories_segments":[],"categories_sizes":[],"default_left":[0,0,0,0,0],"id":23,"left_children":[1,-1,3,-1,-1],"loss_changes":[3.891477E3,0E0,1.7176514E1,0E0,0E0],"parents":[2147483647,0,0,2,2],"right_children":[2,-1,4,-1,-1],"split_conditions":[9.157107E0,-6.117734E-2,1.473E3,7.881114E-2,-5.544628E-2],"split_indices":[6,0,1,0,0],"split_type":[0,0,0,0,0],"sum_hessian":[8.1055444E3,4.5548184E3,3.550726E3,3.541828E3,8.8981695E0],"tree_param":{"num_deleted":"0","num_feature":"16","num_nodes":"5","size_leaf_vector":"1"}},{"base_weights":[1.20568744E-4,-5.965488E-1,7.495775E-1,7.067221E-2,-6.000747E-2,-4.1961096E-2,7.504878E-2],"categories":[],"categories_nodes":[],"categories_segments":[],"categories_sizes":[],"default_left":[0,0,0,0,0,0,0],"id":24,"left_children":[1,3,5,-1,-1,-1,-1],"loss_changes":[3.4191372E3,1.9985474E1,3.921875E0,0E0,0E0,0E0,0E0],"parents":[2147483647,0,0,1,1,2,2],"right_children":[2,4,6,-1,-1,-1,-1],"split_conditions":[3E0,3.08E2,7E0,7.067221E-2,-6.000747E-2,-4.1961096E-2,7.504878E-2],"split_indices":[10,1,0,0,0,0,0],"split_type":[0,0,0,0,0,0,0],"sum_hessian":[7.6440312E3,4.255934E3,3.388097E3,1.0944881E1,4.2449893E3,2.277955E0,3.385819E3],"tree_param":{"num_deleted":"0","num_feature":"16","num_nodes":"7","size_leaf_vector":"1"}},{"base_weights":[-5.896938E-5,7.476187E-1,-6.000727E-2,-5.3447455E-2,7.5045176E-2],"categories":[],"categories_nodes":[],"categories_segments":[],"categories_sizes":[],"default_left":[0,0,0,0,0],"id":25,"left_children":[1,3,-1,-1,-1],"loss_changes":[3.4300151E3,1.2765381E1,0E0,0E0,0E0],"parents":[2147483647,0,0,1,1],"right_children":[2,4,-1,-1,-1],"split_conditions":[7E0,3.08E2,-6.000727E-2,-5.3447455E-2,7.5045176E-2],"split_indices":[0,1,0,0,0],"split_type":[0,0,0,0,0],"sum_hessian":[7.643756E3,3.4030127E3,4.240743E3,7.089336E0,3.3959233E3],"tree_param":{"num_deleted":"0","num_feature":"16","num_nodes":"5","size_leaf_vector":"1"}},{"base_weights":[-6.161854E-5,-6.0007792E-2,7.47133E-1,7.504474E-2,-5.403043E-2],"categories":[],"categories_nodes":[],"categories_segments":[],"categories_sizes":[],"default_left":[0,0,0,0,0],"id":26,"left_children":[1,-1,3,-1,-1],"loss_changes":[3.4278018E3,0E0,1.4936157E1,0E0,0E0],"parents":[2147483647,0,0,2,2],"right_children":[2,-1,4,-1,-1],"split_conditions":[9.157107E0,-6.0007792E-2,1.473E3,7.504474E-2,-5.403043E-2],"split_indices":[6,0,1,0,0],"split_type":[0,0,0,0,0],"sum_hessian":[7.64373E3,4.2395005E3,3.4042297E3,3.3959043E3,8.325432E0],"tree_param":{"num_deleted":"0","num_feature":"16","num_nodes":"5","size_leaf_vector":"1"}},{"base_weights":[1.2589121E-4,-5.861502E-1,7.179445E-1,6.746187E-2,-5.8968056E-2,-4.0551625E-2,7.188167E-2],"categories":[],"categories_nodes":[],"categories_segments":[],"categories_sizes":[],"default_left":[0,0,0,0,0,0,0],"id":27,"left_children":[1,3,5,-1,-1,-1,-1],"loss_changes":[3.0213438E3,1.7986816E1,3.4539795E0,0E0,0E0,0E0,0E0],"parents":[2147483647,0,0,1,1,2,2],"right_children":[2,4,6,-1,-1,-1,-1],"split_conditions":[3E0,3.08E2,7E0,6.746187E-2,-5.8968056E-2,-4.0551625E-2,7.188167E-2],"split_indices":[10,1,0,0,0,0,0],"split_type":[0,0,0,0,0,0,0],"sum_hessian":[7.1773184E3,3.9507441E3,3.2265745E3,1.050102E1,3.940243E3,2.1429186E0,3.2244316E3],"tree_param":{"num_deleted":"0","num_feature":"16","num_nodes":"7","size_leaf_vector":"1"}},{"base_weights":[-6.0826595E-5,7.1608114E-1,-5.8967885E-2,-5.21203E-2,7.1878515E-2],"categories":[],"categories_nodes":[],"categories_segments":[],"categories_sizes":[],"default_left":[0,0,0,0,0],"id":28,"left_children":[1,3,-1,-1,-1],"loss_changes":[3.0313245E3,1.1220093E1,0E0,0E0,0E0],"parents":[2147483647,0,0,1,1],"right_children":[2,4,-1,-1,-1],"split_conditions":[7E0,3.08E2,-5.8967885E-2,-5.21203E-2,7.1878515E-2],"split_indices":[0,1,0,0,0],"split_type":[0,0,0,0,0],"sum_hessian":[7.1769775E3,3.2406787E3,3.9362986E3,6.6486497E0,3.23403E3],"tree_param":{"num_deleted":"0","num_feature":"16","num_nodes":"5","size_leaf_vector":"1"}},{"base_weights":[-6.50713E-5,-5.8968395E-2,7.156311E-1,7.187793E-2,-5.270625E-2],"categories":[],"categories_nodes":[],"categories_segments":[],"categories_sizes":[],"default_left":[0,0,0,0,0],"id":29,"left_children":[1,-1,3,-1,-1],"loss_changes":[3.0294238E3,0E0,1.3065186E1,0E0,0E0],"parents":[2147483647,0,0,2,2],"right_children":[2,-1,4,-1,-1],"split_conditions":[9.157107E0,-5.8968395E-2,1.473E3,7.187793E-2,-5.270625E-2],"split_indices":[6,0,1,0,0],"split_type":[0,0,0,0,0],"sum_hessian":[7.176933E3,3.9351646E3,3.2417686E3,3.2339973E3,7.7712536E0],"tree_param":{"num_deleted":"0","num_feature":"16","num_nodes":"5","size_leaf_vector":"1"}},{"base_weights":[1.3173775E-4,-5.7689184E-1,6.911081E-1,6.467076E-2,-5.804294E-2,-3.9190598E-2,6.919504E-2],"categories":[],"categories_nodes":[],"categories_segments":[],"categories_sizes":[],"default_left":[0,0,0,0,0,0,0],"id":30,"left_children":[1,3,5,-1,-1,-1,-1],"loss_changes":[2.6774016E3,1.6214844E1,3.058838E0,0E0,0E0,0E0,0E0],"parents":[2147483647,0,0,1,1,2,2],"right_children":[2,4,6,-1,-1,-1,-1],"split_conditions":[3E0,3.08E2,7E0,6.467076E-2,-5.804294E-2,-3.9190598E-2,6.919504E-2],"split_indices":[10,1,0,0,0,0,0],"split_type":[0,0,0,0,0,0,0],"sum_hessian":[6.713166E3,3.658323E3,3.0548433E3,1.002195E1,3.648301E3,2.0131018E0,3.05283E3],"tree_param":{"num_deleted":"0","num_feature":"16","num_nodes":"7","size_leaf_vector":"1"}},{"base_weights":[-6.283425E-5,6.8932223E-1,-5.8042783E-2,-5.0866615E-2,6.919227E-2],"categories":[],"categories_nodes":[],"categories_segments":[],"categories_sizes":[],"default_left":[0,0,0,0,0],"id":31,"left_children":[1,3,-1,-1,-1],"loss_changes":[2.6865444E3,9.913208E0,0E0,0E0,0E0],"parents":[2147483647,0,0,1,1],"right_children":[2,4,-1,-1,-1],"split_conditions":[7E0,3.08E2,-5.8042783E-2,-5.0866615E-2,6.919227E-2],"split_indices":[0,1,0,0,0],"split_type":[0,0,0,0,0],"sum_hessian":[6.712767E3,3.06812E3,3.6446467E3,6.223939E0,3.0618962E3],"tree_param":{"num_deleted":"0","num_feature":"16","num_nodes":"5","size_leaf_vector":"1"}},{"base_weights":[-6.887817E-5,-5.804329E-2,6.889033E-1,6.919157E-2,-5.1458765E-2],"categories":[],"categories_nodes":[],"categories_segments":[],"categories_sizes":[],"default_left":[0,0,0,0,0],"id":32,"left_children":[1,-1,3,-1,-1],"loss_changes":[2.6849058E3,0E0,1.1486328E1,0E0,0E0],"parents":[2147483647,0,0,2,2],"right_children":[2,-1,4,-1,-1],"split_conditions":[9.157107E0,-5.804329E-2,1.473E3,6.919157E-2,-5.1458765E-2],"split_indices":[6,0,1,0,0],"split_type":[0,0,0,0,0],"sum_hessian":[6.7127046E3,3.643617E3,3.0690874E3,3.0618484E3,7.23895E0],"tree_param":{"num_deleted":"0","num_feature":"16","num_nodes":"5","size_leaf_vector":"1"}},{"base_weights":[1.3818145E-4,-5.686361E-1,6.681675E-1,6.221902E-2,-5.7218373E-2,-3.787217E-2,6.689865E-2],"categories":[],"categories_nodes":[],"categories_segments":[],"categories_sizes":[],"default_left":[0,0,0,0,0,0,0],"id":33,"left_children":[1,3,5,-1,-1,-1,-1],"loss_changes":[2.3783726E3,1.4639282E1,2.7216797E0,0E0,0E0,0E0,0E0],"parents":[2147483647,0,0,1,1,2,2],"right_children":[2,4,6,-1,-1,-1,-1],"split_conditions":[3E0,3.08E2,7E0,6.221902E-2,-5.7218373E-2,-3.787217E-2,6.689865E-2],"split_indices":[10,1,0,0,0,0,0],"split_type":[0,0,0,0,0,0,0],"sum_hessian":[6.257569E3,3.3799534E3,2.8776152E3,9.521493E0,3.370432E3,1.8889455E0,2.8757263E3],"tree_param":{"num_deleted":"0","num_feature":"16","num_nodes":"7","size_leaf_vector":"1"}},{"base_weights":[-6.512032E-5,6.6644454E-1,-5.7218235E-2,-4.9674988E-2,6.689619E-2],"categories":[],"categories_nodes":[],"categories_segments":[],"categories_sizes":[],"default_left":[0,0,0,0,0],"id":34,"left_children":[1,3,-1,-1,-1],"loss_changes":[2.3867368E3,8.798218E0,0E0,0E0,0E0],"parents":[2147483647,0,0,1,1],"right_children":[2,4,-1,-1,-1],"split_conditions":[7E0,3.08E2,-5.7218235E-2,-4.9674988E-2,6.689619E-2],"split_indices":[0,1,0,0,0],"split_type":[0,0,0,0,0],"sum_hessian":[6.2571167E3,2.8900632E3,3.3670535E3,5.8172703E0,2.8842458E3],"tree_param":{"num_deleted":"0","num_feature":"16","num_nodes":"5","size_leaf_vector":"1"}},{"base_weights":[-7.301792E-5,-5.721874E-2,6.6605306E-1,6.68954E-2,-5.027479E-2],"categories":[],"categories_nodes":[],"categories_segments":[],"categories_sizes":[],"default_left":[0,0,0,0,0],"id":35,"left_children":[1,-1,3,-1,-1],"loss_changes":[2.3853208E3,0E0,1.0141724E1,0E0,0E0],"parents":[2147483647,0,0,2,2],"right_children":[2,-1,4,-1,-1],"split_conditions":[9.157107E0,-5.721874E-2,1.473E3,6.68954E-2,-5.027479E-2],"split_indices":[6,0,1,0,0],"split_type":[0,0,0,0,0],"sum_hessian":[6.257036E3,3.3661223E3,2.890914E3,2.884183E3,6.7308965E0],"tree_param":{"num_deleted":"0","num_feature":"16","num_nodes":"5","size_leaf_vector":"1"}},{"base_weights":[1.4515173E-4,-5.6126374E-1,6.484276E-1,6.0044087E-2,-5.6482453E-2,-3.6591526E-2,6.492289E-2],"categories":[],"categories_nodes":[],"categories_segments":[],"categories_sizes":[],"default_left":[0,0,0,0,0,0,0],"id":36,"left_children":[1,3,5,-1,-1,-1,-1],"loss_changes":[2.1171616E3,1.3234802E1,2.4320068E0,0E0,0E0,0E0,0E0],"parents":[2147483647,0,0,1,1,2,2],"right_children":[2,4,6,-1,-1,-1,-1],"split_conditions":[3E0,3.08E2,7E0,6.0044087E-2,-5.6482453E-2,-3.6591526E-2,6.492289E-2],"split_indices":[10,1,0,0,0,0,0],"split_type":[0,0,0,0,0,0,0],"sum_hessian":[5.8151533E3,3.1164553E3,2.6986982E3,9.011009E0,3.1074443E3,1.7707311E0,2.6969275E3],"tree_param":{"num_deleted":"0","num_feature":"16","num_nodes":"7","size_leaf_vector":"1"}},{"base_weights":[-6.7646135E-5,6.467558E-1,-5.6482326E-2,-4.8535373E-2,6.492071E-2],"categories":[],"categories_nodes":[],"categories_segments":[],"categories_sizes":[],"default_left":[0,0,0,0,0],"id":37,"left_children":[1,3,-1,-1,-1],"loss_changes":[2.1248088E3,7.8391113E0,0E0,0E0,0E0],"parents":[2147483647,0,0,1,1],"right_children":[2,4,-1,-1,-1],"split_conditions":[7E0,3.08E2,-5.6482326E-2,-4.8535373E-2,6.492071E-2],"split_indices":[0,1,0,0,0],"split_type":[0,0,0,0,0],"sum_hessian":[5.8146577E3,2.7103296E3,3.1043281E3,5.430071E0,2.7048997E3],"tree_param":{"num_deleted":"0","num_feature":"16","num_nodes":"5","size_leaf_vector":"1"}},{"base_weights":[-7.7519246E-5,-5.648283E-2,6.4638925E-1,6.491985E-2,-4.9142722E-2],"categories":[],"categories_nodes":[],"categories_segments":[],"categories_sizes":[],"default_left":[0,0,0,0,0],"id":38,"left_children":[1,-1,3,-1,-1],"loss_changes":[2.123583E3,0E0,8.987793E0,0E0,0E0],"parents":[2147483647,0,0,2,2],"right_children":[2,-1,4,-1,-1],"split_conditions":[9.157107E0,-5.648283E-2,1.473E3,6.491985E-2,-4.9142722E-2],"split_indices":[6,0,1,0,0],"split_type":[0,0,0,0,0],"sum_hessian":[5.81456E3,3.10349E3,2.7110698E3,2.7048213E3,6.2486634E0],"tree_param":{"num_deleted":"0","num_feature":"16","num_nodes":"5","size_leaf_vector":"1"}},{"base_weights":[1.5297085E-4,-5.546709E-1,6.313447E-1,5.809626E-2,-5.5824805E-2,-3.5344735E-2,6.3213296E-2],"categories":[],"categories_nodes":[],"categories_segments":[],"categories_sizes":[],"default_left":[0,0,0,0,0,0,0],"id":39,"left_children":[1,3,5,-1,-1,-1,-1],"loss_changes":[1.8880624E3,1.1980225E1,2.1812744E0,0E0,0E0,0E0,0E0],"parents":[2147483647,0,0,1,1,2,2],"right_children":[2,4,6,-1,-1,-1,-1],"split_conditions":[3E0,3.08E2,7E0,5.809626E-2,-5.5824805E-2,-3.5344735E-2,6.3213296E-2],"split_indices":[10,1,0,0,0,0,0],"split_type":[0,0,0,0,0,0,0],"sum_hessian":[5.38938E3,2.8682664E3,2.5211135E3,8.499668E0,2.8597668E3,1.6586064E0,2.519455E3],"tree_param":{"num_deleted":"0","num_feature":"16","num_nodes":"7","size_leaf_vector":"1"}},{"base_weights":[-7.03922E-5,6.2971425E-1,-5.5824693E-2,-4.743898E-2,6.321134E-2],"categories":[],"categories_nodes":[],"categories_segments":[],"categories_sizes":[],"default_left":[0,0,0,0,0],"id":40,"left_children":[1,3,-1,-1,-1],"loss_changes":[1.8950494E3,7.0093384E0,0E0,0E0,0E0],"parents":[2147483647,0,0,1,1],"right_children":[2,4,-1,-1,-1],"split_conditions":[7E0,3.08E2,-5.5824693E-2,-4.743898E-2,6.321134E-2],"split_indices":[0,1,0,0,0],"split_type":[0,0,0,0,0],"sum_hessian":[5.388846E3,2.531948E3,2.8568982E3,5.0632205E0,2.5268848E3],"tree_param":{"num_deleted":"0","num_feature":"16","num_nodes":"5","size_leaf_vector":"1"}},{"base_weights":[-8.2522E-5,-5.5825185E-2,6.293704E-1,6.321042E-2,-4.80524E-2],"categories":[],"categories_nodes":[],"categories_segments":[],"categories_sizes":[],"default_left":[0,0,0,0,0],"id":41,"left_children":[1,-1,3,-1,-1],"loss_changes":[1.8939865E3,0E0,7.991089E0,0E0,0E0],"parents":[2147483647,0,0,2,2],"right_children":[2,-1,4,-1,-1],"split_conditions":[9.157107E0,-5.5825185E-2,1.473E3,6.321042E-2,-4.80524E-2],"split_indices":[6,0,1,0,0],"split_type":[0,0,0,0,0],"sum_hessian":[5.388731E3,2.856147E3,2.532584E3,2.5267908E3,5.793139E0],"tree_param":{"num_deleted":"0","num_feature":"16","num_nodes":"5","size_leaf_vector":"1"}},{"base_weights":[1.6122327E-4,-5.4876703E-1,6.164867E-1,5.633557E-2,-5.5236388E-2,-3.4128707E-2,6.172659E-2],"categories":[],"categories_nodes":[],"categories_segments":[],"categories_sizes":[],"default_left":[0,0,0,0,0,0,0],"id":42,"left_children":[1,3,5,-1,-1,-1,-1],"loss_changes":[1.6864196E3,1.0857788E1,1.9628906E0,0E0,0E0,0E0,0E0],"parents":[2147483647,0,0,1,1,2,2],"right_children":[2,4,6,-1,-1,-1,-1],"split_conditions":[3E0,3.08E2,7E0,5.633557E-2,-5.5236388E-2,-3.4128707E-2,6.172659E-2],"split_indices":[10,1,0,0,0,0,0],"split_type":[0,0,0,0,0,0,0],"sum_hessian":[4.98271E3,2.635511E3,2.3471992E3,7.9947243E0,2.627516E3,1.5526099E0,2.3456465E3],"tree_param":{"num_deleted":"0","num_feature":"16","num_nodes":"7","size_leaf_vector":"1"}},{"base_weights":[-7.349298E-5,6.1488926E-1,-5.5236287E-2,-4.637821E-2,6.172483E-2],"categories":[],"categories_nodes":[],"categories_segments":[],"categories_sizes":[],"default_left":[0,0,0,0,0],"id":43,"left_children":[1,3,-1,-1,-1],"loss_changes":[1.6928025E3,6.2871704E0,0E0,0E0,0E0],"parents":[2147483647,0,0,1,1],"right_children":[2,4,-1,-1,-1],"split_conditions":[7E0,3.08E2,-5.5236287E-2,-4.637821E-2,6.172483E-2],"split_indices":[0,1,0,0,0],"split_type":[0,0,0,0,0],"sum_hessian":[4.982146E3,2.3572659E3,2.6248801E3,4.717141E0,2.3525486E3],"tree_param":{"num_deleted":"0","num_feature":"16","num_nodes":"5","size_leaf_vector":"1"}},{"base_weights":[-8.787606E-5,-5.5236775E-2,6.1456686E-1,6.172387E-2,-4.699491E-2],"categories":[],"categories_nodes":[],"categories_segments":[],"categories_sizes":[],"default_left":[0,0,0,0,0],"id":44,"left_children":[1,-1,3,-1,-1],"loss_changes":[1.6918804E3,0E0,7.125122E0,0E0,0E0],"parents":[2147483647,0,0,2,2],"right_children":[2,-1,4,-1,-1],"split_conditions":[9.157107E0,-5.5236775E-2,1.473E3,6.172387E-2,-4.699491E-2],"split_indices":[6,0,1,0,0],"split_type":[0,0,0,0,0],"sum_hessian":[4.9820137E3,2.6242092E3,2.3578044E3,2.3524397E3,5.364657E0],"tree_param":{"num_deleted":"0","num_feature":"16","num_nodes":"5","size_leaf_vector":"1"}},{"base_weights":[1.7047724E-4,-5.434732E-1,6.035071E-1,5.4729562E-2,-5.4709323E-2,-3.2941055E-2,6.042805E-2],"categories":[],"categories_nodes":[],"categories_segments":[],"categories_sizes":[],"default_left":[0,0,0,0,0,0,0],"id":45,"left_children":[1,3,5,-1,-1,-1,-1],"loss_changes":[1.5084025E3,9.85144E0,1.7717896E0,0E0,0E0,0E0,0E0],"parents":[2147483647,0,0,1,1,2,2],"right_children":[2,4,6,-1,-1,-1,-1],"split_conditions":[3E0,3.08E2,7E0,5.4729562E-2,-5.4709323E-2,-3.2941055E-2,6.042805E-2],"split_indices":[10,1,0,0,0,0,0],"split_type":[0,0,0,0,0,0,0],"sum_hessian":[4.596786E3,2.4180618E3,2.178724E3,7.501789E0,2.41056E3,1.4526925E0,2.1772715E3],"tree_param":{"num_deleted":"0","num_feature":"16","num_nodes":"7","size_leaf_vector":"1"}},{"base_weights":[-7.683569E-5,6.019353E-1,-5.4709226E-2,-4.534654E-2,6.0426455E-2],"categories":[],"categories_nodes":[],"categories_segments":[],"categories_sizes":[],"default_left":[0,0,0,0,0],"id":46,"left_children":[1,3,-1,-1,-1],"loss_changes":[1.5142314E3,5.6554565E0,0E0,0E0,0E0],"parents":[2147483647,0,0,1,1],"right_children":[2,4,-1,-1,-1],"split_conditions":[7E0,3.08E2,-5.4709226E-2,-4.534654E-2,6.0426455E-2],"split_indices":[0,1,0,0,0],"split_type":[0,0,0,0,0],"sum_hessian":[4.5961953E3,2.1880544E3,2.4081409E3,4.3918815E0,2.1836624E3],"tree_param":{"num_deleted":"0","num_feature":"16","num_nodes":"5","size_leaf_vector":"1"}},{"base_weights":[-9.3543065E-5,-5.4709714E-2,6.016332E-1,6.042547E-2,-4.596252E-2],"categories":[],"categories_nodes":[],"categories_segments":[],"categories_sizes":[],"default_left":[0,0,0,0,0],"id":47,"left_children":[1,-1,3,-1,-1],"loss_changes":[1.5134326E3,0E0,6.3691406E0,0E0,0E0],"parents":[2147483647,0,0,2,2],"right_children":[2,-1,4,-1,-1],"split_conditions":[9.157107E0,-5.4709714E-2,1.473E3,6.042547E-2,-4.596252E-2],"split_indices":[6,0,1,0,0],"split_type":[0,0,0,0,0],"sum_hessian":[4.596049E3,2.407545E3,2.1885037E3,2.1835405E3,4.963095E0],"tree_param":{"num_deleted":"0","num_feature":"16","num_nodes":"5","size_leaf_vector":"1"}},{"base_weights":[1.8056197E-4,-5.3872E-1,5.9212387E-1,5.3251594E-2,-5.423669E-2,-3.178E-2,5.928945E-2],"categories":[],"categories_nodes":[],"categories_segments":[],"categories_sizes":[],"default_left":[0,0,0,0,0,0,0],"id":48,"left_children":[1,3,5,-1,-1,-1,-1],"loss_changes":[1.3508223E3,8.948242E0,1.6034546E0,0E0,0E0,0E0,0E0],"parents":[2147483647,0,0,1,1,2,2],"right_children":[2,4,6,-1,-1,-1,-1],"split_conditions":[3E0,3.08E2,7E0,5.3251594E-2,-5.423669E-2,-3.178E-2,5.928945E-2],"split_indices":[10,1,0,0,0,0,0],"split_type":[0,0,0,0,0,0,0],"sum_hessian":[4.232571E3,2.2155977E3,2.0169731E3,7.025074E0,2.2085728E3,1.3587345E0,2.0156144E3],"tree_param":{"num_deleted":"0","num_feature":"16","num_nodes":"7","size_leaf_vector":"1"}},{"base_weights":[-8.050949E-5,5.905714E-1,-5.4236602E-2,-4.433844E-2,5.9288014E-2],"categories":[],"categories_nodes":[],"categories_segments":[],"categories_sizes":[],"default_left":[0,0,0,0,0],"id":49,"left_children":[1,3,-1,-1,-1],"loss_changes":[1.3561455E3,5.100464E0,0E0,0E0,0E0],"parents":[2147483647,0,0,1,1],"right_children":[2,4,-1,-1,-1],"split_conditions":[7E0,3.08E2,-5.4236602E-2,-4.433844E-2,5.9288014E-2],"split_indices":[0,1,0,0,0],"split_type":[0,0,0,0,0],"sum_hessian":[4.231959E3,2.0256031E3,2.2063557E3,4.0871935E0,2.021516E3],"tree_param":{"num_deleted":"0","num_feature":"16","num_nodes":"5","size_leaf_vector":"1"}},{"base_weights":[-9.9975354E-5,-5.423708E-2,5.9028876E-1,5.928699E-2,-4.494854E-2],"categories":[],"categories_nodes":[],"categories_segments":[],"categories_sizes":[],"default_left":[0,0,0,0,0],"id":50,"left_children":[1,-1,3,-1,-1],"loss_changes":[1.3554531E3,0E0,5.70636E0,0E0,0E0],"parents":[2147483647,0,0,2,2],"right_children":[2,-1,4,-1,-1],"split_conditions":[9.157107E0,-5.423708E-2,1.473E3,5.928699E-2,-4.494854E-2],"split_indices":[6,0,1,0,0],"split_type":[0,0,0,0,0],"sum_hessian":[4.2317983E3,2.2058296E3,2.0259686E3,2.0213807E3,4.5879784E0],"tree_param":{"num_deleted":"0","num_feature":"16","num_nodes":"5","size_leaf_vector":"1"}},{"base_weights":[1.913772E-4,-5.3444684E-1,5.821058E-1,5.187967E-2,-5.3812426E-2,-3.0644331E-2,5.8287647E-2],"categories":[],"categories_nodes":[],"categories_segments":[],"categories_sizes":[],"default_left":[0,0,0,0,0,0,0],"id":51,"left_children":[1,3,5,-1,-1,-1,-1],"loss_changes":[1.2110052E3,8.136658E0,1.454834E0,0E0,0E0,0E0,0E0],"parents":[2147483647,0,0,1,1,2,2],"right_children":[2,4,6,-1,-1,-1,-1],"split_conditions":[3E0,3.08E2,7E0,5.187967E-2,-5.3812426E-2,-3.0644331E-2,5.8287647E-2],"split_indices":[10,1,0,0,0,0,0],"split_type":[0,0,0,0,0,0,0],"sum_hessian":[3.8904844E3,2.0276487E3,1.8628357E3,6.567617E0,2.021081E3,1.2705643E0,1.8615652E3],"tree_param":{"num_deleted":"0","num_feature":"16","num_nodes":"7","size_leaf_vector":"1"}},{"base_weights":[-8.4627514E-5,5.805671E-1,-5.381235E-2,-4.334932E-2,5.8286346E-2],"categories":[],"categories_nodes":[],"categories_segments":[],"categories_sizes":[],"default_left":[0,0,0,0,0],"id":52,"left_children":[1,3,-1,-1,-1],"loss_changes":[1.2158674E3,4.611328E0,0E0,0E0,0E0],"parents":[2147483647,0,0,1,1],"right_children":[2,4,-1,-1,-1],"split_conditions":[7E0,3.08E2,-5.381235E-2,-4.334932E-2,5.8286346E-2],"split_indices":[0,1,0,0,0],"split_type":[0,0,0,0,0],"sum_hessian":[3.889857E3,1.8708047E3,2.0190521E3,3.8025932E0,1.8670021E3],"tree_param":{"num_deleted":"0","num_feature":"16","num_nodes":"5","size_leaf_vector":"1"}},{"base_weights":[-1.0696016E-4,-5.381282E-2,5.8030355E-1,5.8285296E-2,-4.3947257E-2],"categories":[],"categories_nodes":[],"categories_segments":[],"categories_sizes":[],"default_left":[0,0,0,0,0],"id":53,"left_children":[1,-1,3,-1,-1],"loss_changes":[1.2152683E3,0E0,5.12323E0,0E0,0E0],"parents":[2147483647,0,0,2,2],"right_children":[2,-1,4,-1,-1],"split_conditions":[9.157107E0,-5.381282E-2,1.473E3,5.8285296E-2,-4.3947257E-2],"split_indices":[6,0,1,0,0],"split_type":[0,0,0,0,0],"sum_hessian":[3.889683E3,2.0185901E3,1.8710929E3,1.8668544E3,4.238555E0],"tree_param":{"num_deleted":"0","num_feature":"16","num_nodes":"5","size_leaf_vector":"1"}},{"base_weights":[2.0337962E-4,-5.306E-1,5.7326186E-1,5.0595503E-2,-5.3431194E-2,-2.9533243E-2,5.7403494E-2],"categories":[],"categories_nodes":[],"categories_segments":[],"categories_sizes":[],"default_left":[0,0,0,0,0,0,0],"id":54,"left_children":[1,3,5,-1,-1,-1,-1],"loss_changes":[1.0866932E3,7.406372E0,1.3231812E0,0E0,0E0,0E0,0E0],"parents":[2147483647,0,0,1,1,2,2],"right_children":[2,4,6,-1,-1,-1,-1],"split_conditions":[3E0,3.08E2,7E0,5.0595503E-2,-5.3431194E-2,-2.9533243E-2,5.7403494E-2],"split_indices":[10,1,0,0,0,0,0],"split_type":[0,0,0,0,0,0,0],"sum_hessian":[3.5705178E3,1.8536359E3,1.716882E3,6.1314993E0,1.8475044E3,1.1879708E0,1.715694E3],"tree_param":{"num_deleted":"0","num_feature":"16","num_nodes":"7","size_leaf_vector":"1"}},{"base_weights":[-8.9172514E-5,5.717316E-1,-5.343112E-2,-4.2375416E-2,5.740231E-2],"categories":[],"categories_nodes":[],"categories_segments":[],"categories_sizes":[],"default_left":[0,0,0,0,0],"id":55,"left_children":[1,3,-1,-1,-1],"loss_changes":[1.0911345E3,4.178711E0,0E0,0E0,0E0],"parents":[2147483647,0,0,1,1],"right_children":[2,4,-1,-1,-1],"split_conditions":[7E0,3.08E2,-5.343112E-2,-4.2375416E-2,5.740231E-2],"split_indices":[0,1,0,0,0],"split_type":[0,0,0,0,0],"sum_hessian":[3.5698777E3,1.7242278E3,1.8456499E3,3.5374212E0,1.7206904E3],"tree_param":{"num_deleted":"0","num_feature":"16","num_nodes":"5","size_leaf_vector":"1"}},{"base_weights":[-1.1442486E-4,-5.343159E-2,5.714871E-1,5.7401247E-2,-4.295386E-2],"categories":[],"categories_nodes":[],"categories_segments":[],"categories_sizes":[],"default_left":[0,0,0,0,0],"id":56,"left_children":[1,-1,3,-1,-1],"loss_changes":[1.0906178E3,0E0,4.6082764E0,0E0,0E0],"parents":[2147483647,0,0,2,2],"right_children":[2,-1,4,-1,-1],"split_conditions":[9.157107E0,-5.343159E-2,1.473E3,5.7401247E-2,-4.295386E-2],"split_indices":[6,0,1,0,0],"split_type":[0,0,0,0,0],"sum_hessian":[3.5696926E3,1.8452466E3,1.7244462E3,1.7205323E3,3.9138699E0],"tree_param":{"num_deleted":"0","num_feature":"16","num_nodes":"5","size_leaf_vector":"1"}},{"base_weights":[2.1645002E-4,-5.2713233E-1,5.654324E-1,4.9383834E-2,-5.3088296E-2,-2.8446307E-2,5.6621026E-2],"categories":[],"categories_nodes":[],"categories_segments":[],"categories_sizes":[],"default_left":[0,0,0,0,0,0,0],"id":57,"left_children":[1,3,5,-1,-1,-1,-1],"loss_changes":[9.7596497E2,6.748596E0,1.2058716E0,0E0,0E0,0E0,0E0],"parents":[2147483647,0,0,1,1,2,2],"right_children":[2,4,6,-1,-1,-1,-1],"split_conditions":[3E0,3.08E2,7E0,4.9383834E-2,-5.3088296E-2,-2.8446307E-2,5.6621026E-2],"split_indices":[10,1,0,0,0,0,0],"split_type":[0,0,0,0,0,0,0],"sum_hessian":[3.272326E3,1.6929055E3,1.5794203E3,5.71801E0,1.6871875E3,1.1107147E0,1.5783096E3],"tree_param":{"num_deleted":"0","num_feature":"16","num_nodes":"7","size_leaf_vector":"1"}},{"base_weights":[-9.412318E-5,5.639058E-1,-5.3088218E-2,-4.1413773E-2,5.661994E-2],"categories":[],"categories_nodes":[],"categories_segments":[],"categories_sizes":[],"default_left":[0,0,0,0,0],"id":58,"left_children":[1,3,-1,-1,-1],"loss_changes":[9.800223E2,3.7948608E0,0E0,0E0,0E0],"parents":[2147483647,0,0,1,1],"right_children":[2,4,-1,-1,-1],"split_conditions":[7E0,3.08E2,-5.3088218E-2,-4.1413773E-2,5.661994E-2],"split_indices":[0,1,0,0,0],"split_type":[0,0,0,0,0],"sum_hessian":[3.2716765E3,1.5861827E3,1.6854938E3,3.2908874E0,1.5828918E3],"tree_param":{"num_deleted":"0","num_feature":"16","num_nodes":"5","size_leaf_vector":"1"}},{"base_weights":[-1.2242973E-4,-5.3088684E-2,5.6368047E-1,5.6618858E-2,-4.1964393E-2],"categories":[],"categories_nodes":[],"categories_segments":[],"categories_sizes":[],"default_left":[0,0,0,0,0],"id":59,"left_children":[1,-1,3,-1,-1],"loss_changes":[9.7957806E2,0E0,4.152466E0,0E0,0E0],"parents":[2147483647,0,0,2,2],"right_children":[2,-1,4,-1,-1],"split_conditions":[9.157107E0,-5.3088684E-2,1.473E3,5.6618858E-2,-4.1964393E-2],"split_indices":[6,0,1,0,0],"split_type":[0,0,0,0,0],"sum_hessian":[3.2714822E3,1.6851445E3,1.5863378E3,1.582725E3,3.6128218E0],"tree_param":{"num_deleted":"0","num_feature":"16","num_nodes":"5","size_leaf_vector":"1"}},{"base_weights":[2.3047143E-4,-5.2400196E-1,5.5848324E-1,4.8231877E-2,-5.2779563E-2,-2.7383376E-2,5.5926796E-2],"categories":[],"categories_nodes":[],"categories_segments":[],"categories_sizes":[],"default_left":[0,0,0,0,0,0,0],"id":60,"left_children":[1,3,5,-1,-1,-1,-1],"loss_changes":[8.771755E2,6.155609E0,1.1012268E0,0E0,0E0,0E0,0E0],"parents":[2147483647,0,0,1,1,2,2],"right_children":[2,4,6,-1,-1,-1,-1],"split_conditions":[3E0,3.08E2,7E0,4.8231877E-2,-5.2779563E-2,-2.7383376E-2,5.5926796E-2],"split_indices":[10,1,0,0,0,0,0],"split_type":[0,0,0,0,0,0,0],"sum_hessian":[2.9953103E3,1.544755E3,1.4505552E3,5.327799E0,1.5394272E3,1.0385388E0,1.4495166E3],"tree_param":{"num_deleted":"0","num_feature":"16","num_nodes":"7","size_leaf_vector":"1"}},{"base_weights":[-9.955892E-5,5.569558E-1,-5.2779492E-2,-4.0462133E-2,5.5925805E-2],"categories":[],"categories_nodes":[],"categories_segments":[],"categories_sizes":[],"default_left":[0,0,0,0,0],"id":61,"left_children":[1,3,-1,-1,-1],"loss_changes":[8.808836E2,3.4534912E0,0E0,0E0,0E0],"parents":[2147483647,0,0,1,1],"right_children":[2,4,-1,-1,-1],"split_conditions":[7E0,3.08E2,-5.2779492E-2,-4.0462133E-2,5.5925805E-2],"split_indices":[0,1,0,0,0],"split_type":[0,0,0,0,0],"sum_hessian":[2.994656E3,1.4567742E3,1.537882E3,3.0621095E0,1.453712E3],"tree_param":{"num_deleted":"0","num_feature":"16","num_nodes":"5","size_leaf_vector":"1"}},{"base_weights":[-1.3112361E-4,-5.277995E-2,5.5674994E-1,5.592472E-2,-4.097568E-2],"categories":[],"categories_nodes":[],"categories_segments":[],"categories_sizes":[],"default_left":[0,0,0,0,0],"id":62,"left_children":[1,-1,3,-1,-1],"loss_changes":[8.805033E2,0E0,3.7478333E0,0E0,0E0],"parents":[2147483647,0,0,2,2],"right_children":[2,-1,4,-1,-1],"split_conditions":[9.157107E0,-5.277995E-2,1.473E3,5.592472E-2,-4.097568E-2],"split_indices":[6,0,1,0,0],"split_type":[0,0,0,0,0],"sum_hessian":[2.994453E3,1.5375815E3,1.4568713E3,1.4535371E3,3.3342135E0],"tree_param":{"num_deleted":"0","num_feature":"16","num_nodes":"5","size_leaf_vector":"1"}},{"base_weights":[2.4573877E-4,-5.21172E-1,5.5230105E-1,4.7128957E-2,-5.2501317E-2,-1.969762E-2,5.5309456E-2],"categories":[],"categories_nodes":[],"categories_segments":[],"categories_sizes":[],"default_left":[0,0,0,0,0,0,0],"id":63,"left_children":[1,3,5,-1,-1,-1,-1],"loss_changes":[7.889111E2,5.6206055E0,9.0045166E-1,0E0,0E0,0E0,0E0],"parents":[2147483647,0,0,1,1,2,2],"right_children":[2,4,6,-1,-1,-1,-1],"split_conditions":[3E0,3.08E2,7.8E2,4.7128957E-2,-5.2501317E-2,-1.969762E-2,5.5309456E-2],"split_indices":[10,1,1,0,0,0,0],"split_type":[0,0,0,0,0,0,0],"sum_hessian":[2.7386887E3,1.4084551E3,1.3302336E3,4.9610243E0,1.403494E3,1.145765E0,1.3290879E3],"tree_param":{"num_deleted":"0","num_feature":"16","num_nodes":"7","size_leaf_vector":"1"}},{"base_weights":[-1.05515945E-4,5.5076844E-1,-5.2501243E-2,-3.95189E-2,5.5308558E-2],"categories":[],"categories_nodes":[],"categories_segments":[],"categories_sizes":[],"default_left":[0,0,0,0,0],"id":64,"left_children":[1,3,-1,-1,-1],"loss_changes":[7.92301E2,3.1490784E0,0E0,0E0,0E0],"parents":[2147483647,0,0,1,1],"right_children":[2,4,-1,-1,-1],"split_conditions":[7E0,3.08E2,-5.2501243E-2,-3.95189E-2,5.5308558E-2],"split_indices":[0,1,0,0,0],"split_type":[0,0,0,0,0],"sum_hessian":[2.7380322E3,1.335947E3,1.4020853E3,2.850153E0,1.3330969E3],"tree_param":{"num_deleted":"0","num_feature":"16","num_nodes":"5","size_leaf_vector":"1"}},{"base_weights":[-1.4034328E-4,-5.2501697E-2,5.505827E-1,5.5307474E-2,-3.9985288E-2],"categories":[],"categories_nodes":[],"categories_segments":[],"categories_sizes":[],"default_left":[0,0,0,0,0],"id":65,"left_children":[1,-1,3,-1,-1],"loss_changes":[7.919776E2,0E0,3.387848E0,0E0,0E0],"parents":[2147483647,0,0,2,2],"right_children":[2,-1,4,-1,-1],"split_conditions":[9.157107E0,-5.2501697E-2,1.473E3,5.5307474E-2,-3.9985288E-2],"split_indices":[6,0,1,0,0],"split_type":[0,0,0,0,0],"sum_hessian":[2.7378225E3,1.4018297E3,1.3359927E3,1.3329159E3,3.0767899E0],"tree_param":{"num_deleted":"0","num_feature":"16","num_nodes":"5","size_leaf_vector":"1"}},{"base_weights":[2.637687E-4,-5.186093E-1,5.467848E-1,4.6066135E-2,-5.2250285E-2,-1.8841902E-2,5.4759353E-2],"categories":[],"categories_nodes":[],"categories_segments":[],"categories_sizes":[],"default_left":[0,0,0,0,0,0,0],"id":66,"left_children":[1,3,5,-1,-1,-1,-1],"loss_changes":[7.0994824E2,5.1374207E0,8.28125E-1,0E0,0E0,0E0,0E0],"parents":[2147483647,0,0,1,1,2,2],"right_children":[2,4,6,-1,-1,-1,-1],"split_conditions":[3E0,3.08E2,7.8E2,4.6066135E-2,-5.2250285E-2,-1.8841902E-2,5.4759353E-2],"split_indices":[10,1,1,0,0,0,0],"split_type":[0,0,0,0,0,0,0],"sum_hessian":[2.5015637E3,1.2832671E3,1.2182968E3,4.61745E0,1.2786497E3,1.0836898E0,1.217213E3],"tree_param":{"num_deleted":"0","num_feature":"16","num_nodes":"7","size_leaf_vector":"1"}},{"base_weights":[-1.1202976E-4,5.4524744E-1,-5.2250233E-2,-3.8583048E-2,5.475856E-2],"categories":[],"categories_nodes":[],"categories_segments":[],"categories_sizes":[],"default_left":[0,0,0,0,0],"id":67,"left_children":[1,3,-1,-1,-1],"loss_changes":[7.1305304E2,2.8771057E0,0E0,0E0,0E0],"parents":[2147483647,0,0,1,1],"right_children":[2,4,-1,-1,-1],"split_conditions":[7E0,3.08E2,-5.2250233E-2,-3.8583048E-2,5.475856E-2],"split_indices":[0,1,0,0,0],"split_type":[0,0,0,0,0],"sum_hessian":[2.5009023E3,1.2235303E3,1.277372E3,2.6540477E0,1.2208762E3],"tree_param":{"num_deleted":"0","num_feature":"16","num_nodes":"5","size_leaf_vector":"1"}},{"base_weights":[-1.5166397E-4,-5.225068E-2,5.450822E-1,5.4757435E-2,-3.899148E-2],"categories":[],"categories_nodes":[],"categories_segments":[],"categories_sizes":[],"default_left":[0,0,0,0,0],"id":68,"left_children":[1,-1,3,-1,-1],"loss_changes":[7.1277765E2,0E0,3.0668335E0,0E0,0E0],"parents":[2147483647,0,0,2,2],"right_children":[2,-1,4,-1,-1],"split_conditions":[9.157107E0,-5.225068E-2,1.473E3,5.4757435E-2,-3.899148E-2],"split_indices":[6,0,1,0,0],"split_type":[0,0,0,0,0],"sum_hessian":[2.5006807E3,1.2771567E3,1.2235238E3,1.2206846E3,2.839269E0],"tree_param":{"num_deleted":"0","num_feature":"16","num_nodes":"5","size_leaf_vector":"1"}},{"base_weights":[2.8313E-4,-5.155078E-1,5.4267526E-2,4.5036E-2,-5.194501E-1,-5.2023567E-2,7.6293305E-4],"categories":[],"categories_nodes":[],"categories_segments":[],"categories_sizes":[],"default_left":[0,0,0,0,0,0,0],"id":69,"left_children":[1,3,-1,-1,5,-1,-1],"loss_changes":[6.392311E2,4.693573E0,0E0,0E0,4.8709106E-1,0E0,0E0],"parents":[2147483647,0,0,1,1,4,4],"right_children":[2,4,-1,-1,6,-1,-1],"split_conditions":[3.6E2,3.08E2,5.4267526E-2,4.5036E-2,3E0,-5.2023567E-2,7.6293305E-4],"split_indices":[12,1,0,0,10,0,0],"split_type":[0,0,0,0,0,0,0],"sum_hessian":[2.282919E3,1.1701796E3,1.1127394E3,4.2965455E0,1.1658829E3,1.164161E3,1.7220308E0],"tree_param":{"num_deleted":"0","num_feature":"16","num_nodes":"7","size_leaf_vector":"1"}},{"base_weights":[-1.1917918E-4,5.4030997E-1,-5.2023526E-2,-3.7654072E-2,5.4267514E-2],"categories":[],"categories_nodes":[],"categories_segments":[],"categories_sizes":[],"default_left":[0,0,0,0,0],"id":70,"left_children":[1,3,-1,-1,-1],"loss_changes":[6.4207184E2,2.633606E0,0E0,0E0,0E0],"parents":[2147483647,0,0,1,1],"right_children":[2,4,-1,-1,-1],"split_conditions":[7E0,3.08E2,-5.2023526E-2,-3.7654072E-2,5.4267514E-2],"split_indices":[0,1,0,0,0],"split_type":[0,0,0,0,0],"sum_hessian":[2.2822551E3,1.119252E3,1.163003E3,2.472816E0,1.1167792E3],"tree_param":{"num_deleted":"0","num_feature":"16","num_nodes":"5","size_leaf_vector":"1"}},{"base_weights":[-1.6362598E-4,-5.2023966E-2,5.4016626E-1,5.4266352E-2,-3.7993167E-2],"categories":[],"categories_nodes":[],"categories_segments":[],"categories_sizes":[],"default_left":[0,0,0,0,0],"id":71,"left_children":[1,-1,3,-1,-1],"loss_changes":[6.4183954E2,0E0,2.7801208E0,0E0,0E0],"parents":[2147483647,0,0,2,2],"right_children":[2,-1,4,-1,-1],"split_conditions":[9.157107E0,-5.2023966E-2,1.473E3,5.4266352E-2,-3.7993167E-2],"split_indices":[6,0,1,0,0],"split_type":[0,0,0,0,0],"sum_hessian":[2.282024E3,1.1628243E3,1.1191996E3,1.1165792E3,2.620369E0],"tree_param":{"num_deleted":"0","num_feature":"16","num_nodes":"5","size_leaf_vector":"1"}},{"base_weights":[3.082357E-4,-5.1417184E-1,5.374309E-1,4.4032395E-2,-5.1818576E-2,7.513572E-4,5.3828258E-2],"categories":[],"categories_nodes":[],"categories_segments":[],"categories_sizes":[],"default_left":[0,0,0,0,0,0,0],"id":72,"left_children":[1,3,5,-1,-1,-1,-1],"loss_changes":[5.758199E2,4.305786E0,4.560852E-1,0E0,0E0,0E0,0E0],"parents":[2147483647,0,0,1,1,2,2],"right_children":[2,4,6,-1,-1,-1,-1],"split_conditions":[3E0,3.08E2,3.6E2,4.4032395E-2,-5.1818576E-2,7.513572E-4,5.3828258E-2],"split_indices":[10,1,12,0,0,0,0],"split_type":[0,0,0,0,0,0,0],"sum_hessian":[2.0817454E3,1.063306E3,1.0184394E3,3.997551E0,1.0593086E3,1.6499957E0,1.01678937E3],"tree_param":{"num_deleted":"0","num_feature":"16","num_nodes":"7","size_leaf_vector":"1"}},{"base_weights":[-1.275671E-4,5.358855E-1,-5.1818587E-2,-3.673193E-2,5.382836E-2],"categories":[],"categories_nodes":[],"categories_segments":[],"categories_sizes":[],"default_left":[0,0,0,0,0],"id":73,"left_children":[1,3,-1,-1,-1],"loss_changes":[5.7843866E2,2.4152527E0,0E0,0E0,0E0],"parents":[2147483647,0,0,1,1],"right_children":[2,4,-1,-1,-1],"split_conditions":[7E0,3.08E2,-5.1818587E-2,-3.673193E-2,5.382836E-2],"split_indices":[0,1,0,0,0],"split_type":[0,0,0,0,0],"sum_hessian":[2.0810676E3,1.0227927E3,1.058275E3,2.305489E0,1.02048724E3],"tree_param":{"num_deleted":"0","num_feature":"16","num_nodes":"5","size_leaf_vector":"1"}},{"base_weights":[-1.8103607E-4,-5.1819004E-2,5.357588E-1,5.382709E-2,-3.7014864E-2],"categories":[],"categories_nodes":[],"categories_segments":[],"categories_sizes":[],"default_left":[0,0,0,0,0],"id":74,"left_children":[1,-1,3,-1,-1],"loss_changes":[5.782347E2,0E0,2.528839E0,0E0,0E0],"parents":[2147483647,0,0,2,2],"right_children":[2,-1,4,-1,-1],"split_conditions":[9.157107E0,-5.1819004E-2,1.473E3,5.382709E-2,-3.7014864E-2],"split_indices":[6,0,1,0,0],"split_type":[0,0,0,0,0],"sum_hessian":[2.0808152E3,1.058125E3,1.0226903E3,1.02026697E3,2.423369E0],"tree_param":{"num_deleted":"0","num_feature":"16","num_nodes":"5","size_leaf_vector":"1"}},{"base_weights":[3.3547342E-4,-5.122473E-1,5.334597E-1,4.3050345E-2,-5.163298E-2,7.4316154E-4,5.343465E-2],"categories":[],"categories_nodes":[],"categories_segments":[],"categories_sizes":[],"default_left":[0,0,0,0,0,0,0],"id":75,"left_children":[1,3,5,-1,-1,-1,-1],"loss_changes":[5.189211E2,3.9483032E0,4.3023682E-1,0E0,0E0,0E0,0E0],"parents":[2147483647,0,0,1,1,2,2],"right_children":[2,4,6,-1,-1,-1,-1],"split_conditions":[3E0,3.08E2,3.6E2,4.3050345E-2,-5.163298E-2,7.4316154E-4,5.343465E-2],"split_indices":[10,1,12,0,0,0,0],"split_type":[0,0,0,0,0,0,0],"sum_hessian":[1.8969293E3,9.6711584E2,9.298134E2,3.7195606E0,9.633963E2,1.580649E0,9.282328E2],"tree_param":{"num_deleted":"0","num_feature":"16","num_nodes":"7","size_leaf_vector":"1"}},{"base_weights":[-1.3646603E-4,5.319116E-1,-5.1633038E-2,-3.581695E-2,5.3434875E-2],"categories":[],"categories_nodes":[],"categories_segments":[],"categories_sizes":[],"default_left":[0,0,0,0,0],"id":76,"left_children":[1,3,-1,-1,-1],"loss_changes":[5.2133307E2,2.2190552E0,0E0,0E0,0E0],"parents":[2147483647,0,0,1,1],"right_children":[2,4,-1,-1,-1],"split_conditions":[7E0,3.08E2,-5.1633038E-2,-3.581695E-2,5.3434875E-2],"split_indices":[0,1,0,0,0],"split_type":[0,0,0,0,0],"sum_hessian":[1.8962417E3,9.337659E2,9.6247577E2,2.1511161E0,9.316148E2],"tree_param":{"num_deleted":"0","num_feature":"16","num_nodes":"5","size_leaf_vector":"1"}},{"base_weights":[-1.9912772E-4,-5.1633444E-2,5.318032E-1,5.3433497E-2,-3.603334E-2],"categories":[],"categories_nodes":[],"categories_segments":[],"categories_sizes":[],"default_left":[0,0,0,0,0],"id":77,"left_children":[1,-1,3,-1,-1],"loss_changes":[5.2115485E2,0E0,2.3034668E0,0E0,0E0],"parents":[2147483647,0,0,2,2],"right_children":[2,-1,4,-1,-1],"split_conditions":[9.157107E0,-5.1633444E-2,1.473E3,5.3433497E-2,-3.603334E-2],"split_indices":[6,0,1,0,0],"split_type":[0,0,0,0,0],"sum_hessian":[1.8959716E3,9.623516E2,9.336199E2,9.3137787E2,2.2420192E0],"tree_param":{"num_deleted":"0","num_feature":"16","num_nodes":"5","size_leaf_vector":"1"}},{"base_weights":[3.6448272E-4,-5.104901E-1,5.298891E-1,4.208582E-2,-5.1464725E-2,7.3792797E-4,5.308136E-2],"categories":[],"categories_nodes":[],"categories_segments":[],"categories_sizes":[],"default_left":[0,0,0,0,0,0,0],"id":78,"left_children":[1,3,5,-1,-1,-1,-1],"loss_changes":[4.6782025E2,3.6245728E0,4.0629578E-1,0E0,0E0,0E0,0E0],"parents":[2147483647,0,0,1,1,2,2],"right_children":[2,4,6,-1,-1,-1,-1],"split_conditions":[3E0,3.08E2,3.6E2,4.208582E-2,-5.1464725E-2,7.3792797E-4,5.308136E-2],"split_indices":[10,1,12,0,0,0,0],"split_type":[0,0,0,0,0,0,0],"sum_hessian":[1.7274005E3,8.79218E2,8.4818256E2,3.4615593E0,8.757564E2,1.5139259E0,8.4666864E2],"tree_param":{"num_deleted":"0","num_feature":"16","num_nodes":"7","size_leaf_vector":"1"}},{"base_weights":[-1.464317E-4,5.2833474E-1,-5.1464822E-2,-3.4909777E-2,5.3081688E-2],"categories":[],"categories_nodes":[],"categories_segments":[],"categories_sizes":[],"default_left":[0,0,0,0,0],"id":79,"left_children":[1,3,-1,-1,-1],"loss_changes":[4.7004318E2,2.0425262E0,0E0,0E0,0E0],"parents":[2147483647,0,0,1,1],"right_children":[2,4,-1,-1,-1],"split_conditions":[7E0,3.08E2,-5.1464822E-2,-3.4909777E-2,5.3081688E-2],"split_indices":[0,1,0,0,0],"split_type":[0,0,0,0,0],"sum_hessian":[1.7267067E3,8.517683E2,8.749384E2,2.0087776E0,8.497595E2],"tree_param":{"num_deleted":"0","num_feature":"16","num_nodes":"5","size_leaf_vector":"1"}},{"base_weights":[-2.1849539E-4,-5.1465213E-2,5.2824605E-1,5.308022E-2,-3.504915E-2],"categories":[],"categories_nodes":[],"categories_segments":[],"categories_sizes":[],"default_left":[0,0,0,0,0],"id":80,"left_children":[1,-1,3,-1,-1],"loss_changes":[4.6988882E2,0E0,2.101059E0,0E0,0E0],"parents":[2147483647,0,0,2,2],"right_children":[2,-1,4,-1,-1],"split_conditions":[9.157107E0,-5.1465213E-2,1.473E3,5.308022E-2,-3.504915E-2],"split_indices":[6,0,1,0,0],"split_type":[0,0,0,0,0],"sum_hessian":[1.7264224E3,8.748378E2,8.515845E2,8.4950934E2,2.0751772E0],"tree_param":{"num_deleted":"0","num_feature":"16","num_nodes":"5","size_leaf_vector":"1"}},{"base_weights":[3.963259E-4,-5.088812E-1,5.266723E-1,4.1135672E-2,-5.131194E-2,7.3533057E-4,5.276371E-2],"categories":[],"categories_nodes":[],"categories_segments":[],"categories_sizes":[],"default_left":[0,0,0,0,0,0,0],"id":81,"left_children":[1,3,5,-1,-1,-1,-1],"loss_changes":[4.2189398E2,3.3311005E0,3.8401794E-1,0E0,0E0,0E0,0E0],"parents":[2147483647,0,0,1,1,2,2],"right_children":[2,4,6,-1,-1,-1,-1],"split_conditions":[3E0,3.08E2,3.6E2,4.1135672E-2,-5.131194E-2,7.3533057E-4,5.276371E-2],"split_indices":[10,1,12,0,0,0,0],"split_type":[0,0,0,0,0,0,0],"sum_hessian":[1.5721107E3,7.989751E2,7.731356E2,3.2224665E0,7.957526E2,1.4497601E0,7.7168585E2],"tree_param":{"num_deleted":"0","num_feature":"16","num_nodes":"7","size_leaf_vector":"1"}},{"base_weights":[-1.5710156E-4,5.251081E-1,-5.1312078E-2,-3.4011323E-2,5.2764144E-2],"categories":[],"categories_nodes":[],"categories_segments":[],"categories_sizes":[],"default_left":[0,0,0,0,0],"id":82,"left_children":[1,3,-1,-1,-1],"loss_changes":[4.2394327E2,1.8834229E0,0E0,0E0,0E0],"parents":[2147483647,0,0,1,1],"right_children":[2,4,-1,-1,-1],"split_conditions":[7E0,3.08E2,-5.1312078E-2,-3.4011323E-2,5.2764144E-2],"split_indices":[0,1,0,0,0],"split_type":[0,0,0,0,0],"sum_hessian":[1.5714121E3,7.763849E2,7.950272E2,1.8775914E0,7.745073E2],"tree_param":{"num_deleted":"0","num_feature":"16","num_nodes":"5","size_leaf_vector":"1"}},{"base_weights":[-2.388767E-4,-5.1312458E-2,5.250407E-1,5.2762598E-2,-3.406325E-2],"categories":[],"categories_nodes":[],"categories_segments":[],"categories_sizes":[],"default_left":[0,0,0,0,0],"id":83,"left_children":[1,-1,3,-1,-1],"loss_changes":[4.2381058E2,0E0,1.9190369E0,0E0,0E0],"parents":[2147483647,0,0,2,2],"right_children":[2,-1,4,-1,-1],"split_conditions":[9.157107E0,-5.1312458E-2,1.473E3,5.2762598E-2,-3.406325E-2],"split_indices":[6,0,1,0,0],"split_type":[0,0,0,0,0],"sum_hessian":[1.5711158E3,7.949478E2,7.761681E2,7.7424634E2,1.9217525E0],"tree_param":{"num_deleted":"0","num_feature":"16","num_nodes":"5","size_leaf_vector":"1"}},{"base_weights":[4.299688E-4,-5.0740343E-1,5.2376825E-1,4.0197488E-2,-5.1172953E-2,7.350621E-4,5.2477624E-2],"categories":[],"categories_nodes":[],"categories_segments":[],"categories_sizes":[],"default_left":[0,0,0,0,0,0,0],"id":84,"left_children":[1,3,5,-1,-1,-1,-1],"loss_changes":[3.8059E2,3.0649414E0,3.63266E-1,0E0,0E0,0E0,0E0],"parents":[2147483647,0,0,1,1,2,2],"right_children":[2,4,6,-1,-1,-1,-1],"split_conditions":[3E0,3.08E2,3.6E2,4.0197488E-2,-5.1172953E-2,7.350621E-4,5.2477624E-2],"split_indices":[10,1,12,0,0,0,0],"split_type":[0,0,0,0,0,0,0],"sum_hessian":[1.4300349E3,7.2578406E2,7.042509E2,3.0011663E0,7.227829E2,1.3880833E0,7.028628E2],"tree_param":{"num_deleted":"0","num_feature":"16","num_nodes":"7","size_leaf_vector":"1"}},{"base_weights":[-1.6930343E-4,5.221904E-1,-5.1173132E-2,-3.3122666E-2,5.2478153E-2],"categories":[],"categories_nodes":[],"categories_segments":[],"categories_sizes":[],"default_left":[0,0,0,0,0],"id":85,"left_children":[1,3,-1,-1,-1],"loss_changes":[3.8248038E2,1.7398376E0,0E0,0E0,0E0],"parents":[2147483647,0,0,1,1],"right_children":[2,4,-1,-1,-1],"split_conditions":[7E0,3.08E2,-5.1173132E-2,-3.3122666E-2,5.2478153E-2],"split_indices":[0,1,0,0,0],"split_type":[0,0,0,0,0],"sum_hessian":[1.4293346E3,7.071935E2,7.221412E2,1.7567177E0,7.0543677E2],"tree_param":{"num_deleted":"0","num_feature":"16","num_nodes":"5","size_leaf_vector":"1"}},{"base_weights":[-2.6085041E-4,-5.1173504E-2,5.2214617E-1,5.2476533E-2,-3.307692E-2],"categories":[],"categories_nodes":[],"categories_segments":[],"categories_sizes":[],"default_left":[0,0,0,0,0],"id":86,"left_children":[1,-1,3,-1,-1],"loss_changes":[3.8236783E2,0E0,1.7550659E0,0E0,0E0],"parents":[2147483647,0,0,2,2],"right_children":[2,-1,4,-1,-1],"split_conditions":[9.157107E0,-5.1173504E-2,1.473E3,5.2476533E-2,-3.307692E-2],"split_indices":[6,0,1,0,0],"split_type":[0,0,0,0,0],"sum_hessian":[1.4290297E3,7.220808E2,7.0694885E2,7.0516815E2,1.7807109E0],"tree_param":{"num_deleted":"0","num_feature":"16","num_nodes":"5","size_leaf_vector":"1"}},{"base_weights":[4.663369E-4,-5.0604135E-1,5.2114105E-1,3.926955E-2,-5.104627E-2,7.368543E-4,5.22195E-2],"categories":[],"categories_nodes":[],"categories_segments":[],"categories_sizes":[],"default_left":[0,0,0,0,0,0,0],"id":87,"left_children":[1,3,5,-1,-1,-1,-1],"loss_changes":[3.434218E2,2.823349E0,3.438568E-1,0E0,0E0,0E0,0E0],"parents":[2147483647,0,0,1,1,2,2],"right_children":[2,4,6,-1,-1,-1,-1],"split_conditions":[3E0,3.08E2,3.6E2,3.926955E-2,-5.104627E-2,7.368543E-4,5.22195E-2],"split_indices":[10,1,12,0,0,0,0],"split_type":[0,0,0,0,0,0,0],"sum_hessian":[1.300193E3,6.5907697E2,6.411161E2,2.7965415E0,6.562804E2,1.3288265E0,6.3978723E2],"tree_param":{"num_deleted":"0","num_feature":"16","num_nodes":"7","size_leaf_vector":"1"}},{"base_weights":[-1.8235936E-4,5.1954573E-1,-5.104648E-2,-3.2245025E-2,5.2220117E-2],"categories":[],"categories_nodes":[],"categories_segments":[],"categories_sizes":[],"default_left":[0,0,0,0,0],"id":88,"left_children":[1,3,-1,-1,-1],"loss_changes":[3.4516678E2,1.6100464E0,0E0,0E0,0E0],"parents":[2147483647,0,0,1,1],"right_children":[2,4,-1,-1,-1],"split_conditions":[7E0,3.08E2,-5.104648E-2,-3.2245025E-2,5.2220117E-2],"split_indices":[0,1,0,0,0],"split_type":[0,0,0,0,0],"sum_hessian":[1.299494E3,6.4377954E2,6.557144E2,1.6453611E0,6.421342E2],"tree_param":{"num_deleted":"0","num_feature":"16","num_nodes":"5","size_leaf_vector":"1"}},{"base_weights":[-2.849973E-4,-5.1046837E-2,5.195265E-1,5.2218426E-2,-3.209171E-2],"categories":[],"categories_nodes":[],"categories_segments":[],"categories_sizes":[],"default_left":[0,0,0,0,0],"id":89,"left_children":[1,-1,3,-1,-1],"loss_changes":[3.4507184E2,0E0,1.607193E0,0E0,0E0],"parents":[2147483647,0,0,2,2],"right_children":[2,-1,4,-1,-1],"split_conditions":[9.157107E0,-5.1046837E-2,1.473E3,5.2218426E-2,-3.209171E-2],"split_indices":[6,0,1,0,0],"split_type":[0,0,0,0,0],"sum_hessian":[1.2991798E3,6.556712E2,6.4350867E2,6.418576E2,1.6510774E0],"tree_param":{"num_deleted":"0","num_feature":"16","num_nodes":"5","size_leaf_vector":"1"}},{"base_weights":[5.0529244E-4,-5.047808E-1,5.187587E-1,3.835069E-2,-5.093051E-2,7.40506E-4,5.1986154E-2],"categories":[],"categories_nodes":[],"categories_segments":[],"categories_sizes":[],"default_left":[0,0,0,0,0,0,0],"id":90,"left_children":[1,3,5,-1,-1,-1,-1],"loss_changes":[3.099574E2,2.6039124E0,3.2566833E-1,0E0,0E0,0E0,0E0],"parents":[2147483647,0,0,1,1,2,2],"right_children":[2,4,6,-1,-1,-1,-1],"split_conditions":[3E0,3.08E2,3.6E2,3.835069E-2,-5.093051E-2,7.40506E-4,5.1986154E-2],"split_indices":[10,1,12,0,0,0,0],"split_type":[0,0,0,0,0,0,0],"sum_hessian":[1.1816477E3,5.983222E2,5.833255E2,2.6074872E0,5.957147E2,1.2719207E0,5.820536E2],"tree_param":{"num_deleted":"0","num_feature":"16","num_nodes":"7","size_leaf_vector":"1"}},{"base_weights":[-1.964472E-4,5.1714194E-1,-5.0930757E-2,-3.1379696E-2,5.198688E-2],"categories":[],"categories_nodes":[],"categories_segments":[],"categories_sizes":[],"default_left":[0,0,0,0,0],"id":91,"left_children":[1,3,-1,-1,-1],"loss_changes":[3.1156915E2,1.4925995E0,0E0,0E0,0E0],"parents":[2147483647,0,0,1,1],"right_children":[2,4,-1,-1,-1],"split_conditions":[7E0,3.08E2,-5.0930757E-2,-3.1379696E-2,5.198688E-2],"split_indices":[0,1,0,0,0],"split_type":[0,0,0,0,0],"sum_hessian":[1.1809521E3,5.857354E2,5.952167E2,1.5427735E0,5.841926E2],"tree_param":{"num_deleted":"0","num_feature":"16","num_nodes":"5","size_leaf_vector":"1"}},{"base_weights":[-3.0992235E-4,-5.0931107E-2,5.1715004E-1,5.1985115E-2,-3.110939E-2],"categories":[],"categories_nodes":[],"categories_segments":[],"categories_sizes":[],"default_left":[0,0,0,0,0],"id":92,"left_children":[1,-1,3,-1,-1],"loss_changes":[3.114908E2,0E0,1.4737091E0,0E0,0E0],"parents":[2147483647,0,0,2,2],"right_children":[2,-1,4,-1,-1],"split_conditions":[9.157107E0,-5.0931107E-2,1.473E3,5.1985115E-2,-3.110939E-2],"split_indices":[6,0,1,0,0],"split_type":[0,0,0,0,0],"sum_hessian":[1.1806323E3,5.951888E2,5.8544354E2,5.839116E2,1.5319382E0],"tree_param":{"num_deleted":"0","num_feature":"16","num_nodes":"5","size_leaf_vector":"1"}},{"base_weights":[5.479432E-4,-5.0360906E-1,5.165933E-1,3.744023E-2,-5.0824452E-2,7.4580533E-4,5.1774796E-2],"categories":[],"categories_nodes":[],"categories_segments":[],"categories_sizes":[],"default_left":[0,0,0,0,0,0,0],"id":93,"left_children":[1,3,5,-1,-1,-1,-1],"loss_changes":[2.798138E2,2.40448E0,3.0859375E-1,0E0,0E0,0E0,0E0],"parents":[2147483647,0,0,1,1,2,2],"right_children":[2,4,6,-1,-1,-1,-1],"split_conditions":[3E0,3.08E2,3.6E2,3.744023E-2,-5.0824452E-2,7.4580533E-4,5.1774796E-2],"split_indices":[10,1,12,0,0,0,0],"split_type":[0,0,0,0,0,0,0],"sum_hessian":[1.0735127E3,5.430233E2,5.304894E2,2.432924E0,5.405904E2,1.2172961E0,5.292721E2],"tree_param":{"num_deleted":"0","num_feature":"16","num_nodes":"7","size_leaf_vector":"1"}},{"base_weights":[-2.1176567E-4,5.149506E-1,-5.0824728E-2,-3.0527983E-2,5.1775616E-2],"categories":[],"categories_nodes":[],"categories_segments":[],"categories_sizes":[],"default_left":[0,0,0,0,0],"id":94,"left_children":[1,3,-1,-1,-1],"loss_changes":[2.813031E2,1.3861389E0,0E0,0E0,0E0],"parents":[2147483647,0,0,1,1],"right_children":[2,4,-1,-1,-1],"split_conditions":[7E0,3.08E2,-5.0824728E-2,-3.0527983E-2,5.1775616E-2],"split_indices":[0,1,0,0,0],"split_type":[0,0,0,0,0],"sum_hessian":[1.0728215E3,5.326678E2,5.401538E2,1.4482543E0,5.3121954E2],"tree_param":{"num_deleted":"0","num_feature":"16","num_nodes":"5","size_leaf_vector":"1"}},{"base_weights":[-3.3673758E-4,-5.0825067E-2,5.149885E-1,5.1773783E-2,-3.013186E-2],"categories":[],"categories_nodes":[],"categories_segments":[],"categories_sizes":[],"default_left":[0,0,0,0,0],"id":95,"left_children":[1,-1,3,-1,-1],"loss_changes":[2.8123972E2,0E0,1.3530121E0,0E0,0E0],"parents":[2147483647,0,0,2,2],"right_children":[2,-1,4,-1,-1],"split_conditions":[9.157107E0,-5.0825067E-2,1.473E3,5.1773783E-2,-3.013186E-2],"split_indices":[6,0,1,0,0],"split_type":[0,0,0,0,0],"sum_hessian":[1.0724968E3,5.401394E2,5.323575E2,5.3093506E2,1.4224398E0],"tree_param":{"num_deleted":"0","num_feature":"16","num_nodes":"5","size_leaf_vector":"1"}},{"base_weights":[5.9273595E-4,-5.025142E-1,5.1461935E-1,3.6537897E-2,-5.072697E-2,7.525885E-4,5.1582914E-2],"categories":[],"categories_nodes":[],"categories_segments":[],"categories_sizes":[],"default_left":[0,0,0,0,0,0,0],"id":96,"left_children":[1,3,5,-1,-1,-1,-1],"loss_changes":[2.5264906E2,2.2230453E0,2.925644E-1,0E0,0E0,0E0,0E0],"parents":[2147483647,0,0,1,1,2,2],"right_children":[2,4,6,-1,-1,-1,-1],"split_conditions":[3E0,3.08E2,3.6E2,3.6537897E-2,-5.072697E-2,7.525885E-4,5.1582914E-2],"split_indices":[10,1,12,0,0,0,0],"split_type":[0,0,0,0,0,0,0],"sum_hessian":[9.749487E2,4.927191E2,4.822296E2,2.271808E0,4.9044727E2,1.1648831E0,4.8106473E2],"tree_param":{"num_deleted":"0","num_feature":"16","num_nodes":"7","size_leaf_vector":"1"}},{"base_weights":[-2.282764E-4,5.1294625E-1,-5.0727267E-2,-2.9691173E-2,5.1583827E-2],"categories":[],"categories_nodes":[],"categories_segments":[],"categories_sizes":[],"default_left":[0,0,0,0,0],"id":97,"left_children":[1,3,-1,-1,-1],"loss_changes":[2.540266E2,1.2895279E0,0E0,0E0,0E0],"parents":[2147483647,0,0,1,1],"right_children":[2,4,-1,-1,-1],"split_conditions":[7E0,3.08E2,-5.0727267E-2,-2.9691173E-2,5.1583827E-2],"split_indices":[0,1,0,0,0],"split_type":[0,0,0,0,0],"sum_hessian":[9.742658E2,4.842001E2,4.900657E2,1.3611495E0,4.8283896E2],"tree_param":{"num_deleted":"0","num_feature":"16","num_nodes":"5","size_leaf_vector":"1"}},{"base_weights":[-3.6471593E-4,-5.0727595E-2,5.130169E-1,5.1581945E-2,-2.916113E-2],"categories":[],"categories_nodes":[],"categories_segments":[],"categories_sizes":[],"default_left":[0,0,0,0,0],"id":98,"left_children":[1,-1,3,-1,-1],"loss_changes":[2.5397717E2,0E0,1.2437897E0,0E0,0E0],"parents":[2147483647,0,0,2,2],"right_children":[2,-1,4,-1,-1],"split_conditions":[9.157107E0,-5.0727595E-2,1.473E3,5.1581945E-2,-2.916113E-2],"split_indices":[6,0,1,0,0],"split_type":[0,0,0,0,0],"sum_hessian":[9.739384E2,4.9006342E2,4.8387503E2,4.8255325E2,1.3217894E0],"tree_param":{"num_deleted":"0","num_feature":"16","num_nodes":"5","size_leaf_vector":"1"}},{"base_weights":[6.41875E-4,-5.014854E-1,5.128147E-1,3.5643797E-2,-5.0637025E-2,7.606863E-4,5.1408272E-2],"categories":[],"categories_nodes":[],"categories_segments":[],"categories_sizes":[],"default_left":[0,0,0,0,0,0,0],"id":99,"left_children":[1,3,5,-1,-1,-1,-1],"loss_changes":[2.2816031E2,2.0578842E0,2.7745056E-1,0E0,0E0,0E0,0E0],"parents":[2147483647,0,0,1,1,2,2],"right_children":[2,4,6,-1,-1,-1,-1],"split_conditions":[3E0,3.08E2,3.6E2,3.5643797E-2,-5.0637025E-2,7.606863E-4,5.1408272E-2],"split_indices":[10,1,12,0,0,0,0],"split_type":[0,0,0,0,0,0,0],"sum_hessian":[8.851759E2,4.4698184E2,4.3819406E2,2.1231472E0,4.448587E2,1.1146122E0,4.3707944E2],"tree_param":{"num_deleted":"0","num_feature":"16","num_nodes":"7","size_leaf_vector":"1"}},{"base_weights":[-2.4634792E-4,5.111063E-1,-5.0637353E-2,-2.8870491E-2,5.140928E-2],"categories":[],"categories_nodes":[],"categories_segments":[],"categories_sizes":[],"default_left":[0,0,0,0,0],"id":100,"left_children":[1,3,-1,-1,-1],"loss_changes":[2.2943474E2,1.2017365E0,0E0,0E0,0E0],"parents":[2147483647,0,0,1,1],"right_children":[2,4,-1,-1,-1],"split_conditions":[7E0,3.08E2,-5.0637353E-2,-2.8870491E-2,5.140928E-2],"split_indices":[0,1,0,0,0],"split_type":[0,0,0,0,0],"sum_hessian":[8.845006E2,4.3997412E2,4.4452646E2,1.2808516E0,4.386933E2],"tree_param":{"num_deleted":"0","num_feature":"16","num_nodes":"5","size_leaf_vector":"1"}},{"base_weights":[-3.9554268E-4,-5.0637674E-2,5.112125E-1,5.1407333E-2,-2.8199231E-2],"categories":[],"categories_nodes":[],"categories_segments":[],"categories_sizes":[],"default_left":[0,0,0,0,0],"id":101,"left_children":[1,-1,3,-1,-1],"loss_changes":[2.2939761E2,0E0,1.144844E0,0E0,0E0],"parents":[2147483647,0,0,2,2],"right_children":[2,-1,4,-1,-1],"split_conditions":[9.157107E0,-5.0637674E-2,1.473E3,5.1407333E-2,-2.8199231E-2],"split_indices":[6,0,1,0,0],"split_type":[0,0,0,0,0],"sum_hessian":[8.8417017E2,4.445348E2,4.3963535E2,4.384061E2,1.2292506E0],"tree_param":{"num_deleted":"0","num_feature":"16","num_nodes":"5","size_leaf_vector":"1"}},{"base_weights":[6.934668E-4,-5.005128E-1,5.1115906E-1,3.4758337E-2,-5.055369E-2,7.6997763E-4,5.124888E-2],"categories":[],"categories_nodes":[],"categories_segments":[],"categories_sizes":[],"default_left":[0,0,0,0,0,0,0],"id":102,"left_children":[1,3,5,-1,-1,-1,-1],"loss_changes":[2.0607545E2,1.9074173E0,2.6319122E-1,0E0,0E0,0E0,0E0],"parents":[2147483647,0,0,1,1,2,2],"right_children":[2,4,6,-1,-1,-1,-1],"split_conditions":[3E0,3.08E2,3.6E2,3.4758337E-2,-5.055369E-2,7.6997763E-4,5.124888E-2],"split_indices":[10,1,12,0,0,0,0],"split_type":[0,0,0,0,0,0,0],"sum_hessian":[8.034587E2,4.0541602E2,3.9804266E2,1.9860023E0,4.0343002E2,1.0664136E0,3.9697626E2],"tree_param":{"num_deleted":"0","num_feature":"16","num_nodes":"7","size_leaf_vector":"1"}},{"base_weights":[-2.6689065E-4,5.0941014E-1,-5.0554045E-2,-2.8067088E-2,5.1249977E-2],"categories":[],"categories_nodes":[],"categories_segments":[],"categories_sizes":[],"default_left":[0,0,0,0,0],"id":103,"left_children":[1,3,-1,-1,-1],"loss_changes":[2.0725531E2,1.1218567E0,0E0,0E0,0E0],"parents":[2147483647,0,0,1,1],"right_children":[2,4,-1,-1,-1],"split_conditions":[7E0,3.08E2,-5.0554045E-2,-2.8067088E-2,5.1249977E-2],"split_indices":[0,1,0,0,0],"split_type":[0,0,0,0,0],"sum_hessian":[8.027928E2,3.9965082E2,4.03142E2,1.2067983E0,3.9844403E2],"tree_param":{"num_deleted":"0","num_feature":"16","num_nodes":"5","size_leaf_vector":"1"}},{"base_weights":[-4.2811956E-4,-5.055436E-2,5.095555E-1,5.124798E-2,-2.7248189E-2],"categories":[],"categories_nodes":[],"categories_segments":[],"categories_sizes":[],"default_left":[0,0,0,0,0],"id":104,"left_children":[1,-1,3,-1,-1],"loss_changes":[2.0722989E2,0E0,1.0550919E0,0E0,0E0],"parents":[2147483647,0,0,2,2],"right_children":[2,-1,4,-1,-1],"split_conditions":[9.157107E0,-5.055436E-2,1.473E3,5.124798E-2,-2.7248189E-2],"split_indices":[6,0,1,0,0],"split_type":[0,0,0,0,0],"sum_hessian":[8.02462E2,4.0315958E2,3.993024E2,3.9815826E2,1.1441439E0],"tree_param":{"num_deleted":"0","num_feature":"16","num_nodes":"5","size_leaf_vector":"1"}},{"base_weights":[7.499183E-4,-4.995869E-1,5.096345E-1,3.3882063E-2,-5.04761E-2,5.763429E-4,5.1105328E-2],"categories":[],"categories_nodes":[],"categories_segments":[],"categories_sizes":[],"default_left":[0,0,0,0,0,0,0],"id":105,"left_children":[1,3,5,-1,-1,-1,-1],"loss_changes":[1.86153E2,1.7702484E0,2.561798E-1,0E0,0E0,0E0,0E0],"parents":[2147483647,0,0,1,1,2,2],"right_children":[2,4,6,-1,-1,-1,-1],"split_conditions":[3E0,3.08E2,1.332E3,3.3882063E-2,-5.04761E-2,5.763429E-4,5.1105328E-2],"split_indices":[10,1,1,0,0,0,0],"split_type":[0,0,0,0,0,0,0],"sum_hessian":[7.2911945E2,3.6765662E2,3.6146283E2,1.8594768E0,3.6579712E2,1.029163E0,3.6043365E2],"tree_param":{"num_deleted":"0","num_feature":"16","num_nodes":"7","size_leaf_vector":"1"}},{"base_weights":[-2.8779928E-4,5.078395E-1,-5.047647E-2,-2.7281988E-2,5.110414E-2],"categories":[],"categories_nodes":[],"categories_segments":[],"categories_sizes":[],"default_left":[0,0,0,0,0],"id":106,"left_children":[1,3,-1,-1,-1],"loss_changes":[1.8724619E2,1.049057E0,0E0,0E0,0E0],"parents":[2147483647,0,0,1,1],"right_children":[2,4,-1,-1,-1],"split_conditions":[7E0,3.08E2,-5.047647E-2,-2.7281988E-2,5.110414E-2],"split_indices":[0,1,0,0,0],"split_type":[0,0,0,0,0],"sum_hessian":[7.2846466E2,3.62916E2,3.655487E2,1.1384692E0,3.617775E2],"tree_param":{"num_deleted":"0","num_feature":"16","num_nodes":"5","size_leaf_vector":"1"}},{"base_weights":[-4.6257576E-4,-5.047678E-2,5.0802755E-1,5.1102072E-2,-2.6309982E-2],"categories":[],"categories_nodes":[],"categories_segments":[],"categories_sizes":[],"default_left":[0,0,0,0,0],"id":107,"left_children":[1,-1,3,-1,-1],"loss_changes":[1.8723106E2,0E0,9.735794E-1,0E0,0E0],"parents":[2147483647,0,0,2,2],"right_children":[2,-1,4,-1,-1],"split_conditions":[9.157107E0,-5.047678E-2,1.473E3,5.1102072E-2,-2.6309982E-2],"split_indices":[6,0,1,0,0],"split_type":[0,0,0,0,0],"sum_hessian":[7.281329E2,3.6557443E2,3.625584E2,3.6149258E2,1.065843E0],"tree_param":{"num_deleted":"0","num_feature":"16","num_nodes":"5","size_leaf_vector":"1"}},{"base_weights":[8.1037177E-4,-4.9727014E-1,5.0968923E-2,3.3015743E-2,-5.0258267E-1,-5.0404698E-2,-1.0304627E-2],"categories":[],"categories_nodes":[],"categories_segments":[],"categories_sizes":[],"default_left":[0,0,0,0,0,0,0],"id":108,"left_children":[1,3,-1,-1,5,-1,-1],"loss_changes":[1.6817928E2,1.6399155E0,0E0,0E0,1.43219E-1,0E0,0E0],"parents":[2147483647,0,0,1,1,4,4],"right_children":[2,4,-1,-1,6,-1,-1],"split_conditions":[3.6E2,3.08E2,5.0968923E-2,3.3015743E-2,1.5523637E1,-5.0404698E-2,-1.0304627E-2],"split_indices":[12,1,0,0,3,0,0],"split_type":[0,0,0,0,0,0,0],"sum_hessian":[6.615269E2,3.34322E2,3.2720493E2,1.7427375E0,3.3257925E2,3.311042E2,1.4750646E0],"tree_param":{"num_deleted":"0","num_feature":"16","num_nodes":"7","size_leaf_vector":"1"}},{"base_weights":[-3.128487E-4,5.063772E-1,-5.0403792E-2,-2.6516084E-2,5.0970115E-2],"categories":[],"categories_nodes":[],"categories_segments":[],"categories_sizes":[],"default_left":[0,0,0,0,0],"id":109,"left_children":[1,3,-1,-1,-1],"loss_changes":[1.6918883E2,9.826355E-1,0E0,0E0,0E0],"parents":[2147483647,0,0,1,1],"right_children":[2,4,-1,-1,-1],"split_conditions":[7E0,3.08E2,-5.0403792E-2,-2.6516084E-2,5.0970115E-2],"split_indices":[0,1,0,0,0],"split_type":[0,0,0,0,0],"sum_hessian":[6.6088116E2,3.2946832E2,3.3141287E2,1.0753846E0,3.283929E2],"tree_param":{"num_deleted":"0","num_feature":"16","num_nodes":"5","size_leaf_vector":"1"}},{"base_weights":[-4.985044E-4,-5.0404113E-2,5.0662255E-1,5.0967973E-2,-2.3723891E-2],"categories":[],"categories_nodes":[],"categories_segments":[],"categories_sizes":[],"default_left":[0,0,0,0,0],"id":110,"left_children":[1,-1,3,-1,-1],"loss_changes":[1.69187E2,0E0,8.7161255E-1,0E0,0E0],"parents":[2147483647,0,0,2,2],"right_children":[2,-1,4,-1,-1],"split_conditions":[9.157107E0,-5.0404113E-2,1.5E1,5.0967973E-2,-2.3723891E-2],"split_indices":[6,0,0,0,0],"split_type":[0,0,0,0,0],"sum_hessian":[6.605508E2,3.314478E2,3.2910294E2,3.2806943E2,1.0335171E0],"tree_param":{"num_deleted":"0","num_feature":"16","num_nodes":"5","size_leaf_vector":"1"}},{"base_weights":[8.6560246E-4,-4.978428E-1,5.0698775E-1,3.2160316E-2,-5.033506E-2,4.552148E-3,5.0844945E-2],"categories":[],"categories_nodes":[],"categories_segments":[],"categories_sizes":[],"default_left":[0,0,0,0,0,0,0],"id":111,"left_children":[1,3,5,-1,-1,-1,-1],"loss_changes":[1.51978E2,1.530693E0,1.7842865E-1,0E0,0E0,0E0,0E0],"parents":[2147483647,0,0,1,1,2,2],"right_children":[2,4,6,-1,-1,-1,-1],"split_conditions":[3E0,3.08E2,7E2,3.2160316E-2,-5.033506E-2,4.552148E-3,5.0844945E-2],"split_indices":[10,1,12,0,0,0,0],"split_type":[0,0,0,0,0,0,0],"sum_hessian":[6.001141E2,3.022791E2,2.9783493E2,1.6350112E0,3.006441E2,1.0418969E0,2.9679303E2],"tree_param":{"num_deleted":"0","num_feature":"16","num_nodes":"7","size_leaf_vector":"1"}},{"base_weights":[-3.5933152E-4,5.050058E-1,-5.0335366E-2,-2.577014E-2,5.084622E-2],"categories":[],"categories_nodes":[],"categories_segments":[],"categories_sizes":[],"default_left":[0,0,0,0,0],"id":112,"left_children":[1,3,-1,-1,-1],"loss_changes":[1.5288449E2,9.2193604E-1,0E0,0E0,0E0],"parents":[2147483647,0,0,1,1],"right_children":[2,4,-1,-1,-1],"split_conditions":[7E0,3.08E2,-5.0335366E-2,-2.577014E-2,5.084622E-2],"split_indices":[0,1,0,0,0],"split_type":[0,0,0,0,0],"sum_hessian":[5.9944385E2,2.9901526E2,3.0042862E2,1.0171041E0,2.9799814E2],"tree_param":{"num_deleted":"0","num_feature":"16","num_nodes":"5","size_leaf_vector":"1"}},{"base_weights":[-5.071172E-4,-5.0335675E-2,5.053004E-1,6.3105196E-2,5.0843682E-2,2.5512729E-2,-1.5790727E-2],"categories":[],"categories_nodes":[],"categories_segments":[],"categories_sizes":[],"default_left":[0,0,0,0,0,0,0],"id":113,"left_children":[1,-1,3,5,-1,-1,-1],"loss_changes":[1.5290582E2,0E0,3.8357544E-1,1.7831904E-1,0E0,0E0,0E0],"parents":[2147483647,0,0,2,2,3,3],"right_children":[2,-1,4,6,-1,-1,-1],"split_conditions":[9.157107E0,-5.0335675E-2,7.73326E-1,1.5522873E1,5.0843682E-2,2.5512729E-2,-1.5790727E-2],"split_indices":[6,0,14,3,0,0,0],"split_type":[0,0,0,0,0,0,0],"sum_hessian":[5.9917456E2,3.0046826E2,2.9870633E2,2.2524722E0,2.9645386E2,1.1226896E0,1.1297826E0],"tree_param":{"num_deleted":"0","num_feature":"16","num_nodes":"7","size_leaf_vector":"1"}},{"base_weights":[9.2676224E-4,-4.9700788E-1,5.057626E-1,3.1316657E-2,-5.0270136E-2,9.620277E-3,5.07327E-2],"categories":[],"categories_nodes":[],"categories_segments":[],"categories_sizes":[],"default_left":[0,0,0,0,0,0,0],"id":114,"left_children":[1,3,5,-1,-1,-1,-1],"loss_changes":[1.3733504E2,1.4261475E0,1.2500763E-1,0E0,0E0,0E0,0E0],"parents":[2147483647,0,0,1,1,2,2],"right_children":[2,4,6,-1,-1,-1,-1],"split_conditions":[3E0,3.08E2,8E0,3.1316657E-2,-5.0270136E-2,9.620277E-3,5.07327E-2],"split_indices":[10,1,0,0,0,0,0],"split_type":[0,0,0,0,0,0,0],"sum_hessian":[5.443348E2,2.7404828E2,2.702865E2,1.5355647E0,2.7251273E2,1.2662891E0,2.6902023E2],"tree_param":{"num_deleted":"0","num_feature":"16","num_nodes":"7","size_leaf_vector":"1"}},{"base_weights":[-4.062892E-4,5.037162E-1,-5.0270464E-2,-8.220551E-3,5.0729316E-2],"categories":[],"categories_nodes":[],"categories_segments":[],"categories_sizes":[],"default_left":[0,0,0,0,0],"id":115,"left_children":[1,3,-1,-1,-1],"loss_changes":[1.381748E2,6.124954E-1,0E0,0E0,0E0],"parents":[2147483647,0,0,1,1],"right_children":[2,4,-1,-1,-1],"split_conditions":[7E0,3.08E2,-5.0270464E-2,-8.220551E-3,5.0729316E-2],"split_indices":[0,11,0,0,0],"split_type":[0,0,0,0,0],"sum_hessian":[5.4367126E2,2.7134152E2,2.7232974E2,1.5130911E0,2.6982843E2],"tree_param":{"num_deleted":"0","num_feature":"16","num_nodes":"5","size_leaf_vector":"1"}},{"base_weights":[-5.2269E-4,-5.0270725E-2,5.0402874E-1,6.0080357E-2,5.0728876E-2,2.4545E-2,-1.5183138E-2],"categories":[],"categories_nodes":[],"categories_segments":[],"categories_sizes":[],"default_left":[0,0,0,0,0,0,0],"id":116,"left_children":[1,-1,3,5,-1,-1,-1],"loss_changes":[1.3819882E2,0E0,3.6328888E-1,1.5973552E-1,0E0,0E0,0E0],"parents":[2147483647,0,0,2,2,3,3],"right_children":[2,-1,4,6,-1,-1,-1],"split_conditions":[9.157107E0,-5.0270725E-2,7.73326E-1,1.5522873E1,5.0728876E-2,2.4545E-2,-1.5183138E-2],"split_indices":[6,0,14,3,0,0,0],"split_type":[0,0,0,0,0,0,0],"sum_hessian":[5.434257E2,2.723535E2,2.7107224E2,2.1176744E0,2.6895456E2,1.0451579E0,1.0725164E0],"tree_param":{"num_deleted":"0","num_feature":"16","num_nodes":"7","size_leaf_vector":"1"}},{"base_weights":[9.87833E-4,-4.9464157E-1,5.0618738E-2,3.1293795E-2,-5.0094014E-1,-5.02094E-2,-1.1869107E-2],"categories":[],"categories_nodes":[],"categories_segments":[],"categories_sizes":[],"default_left":[0,0,0,0,0,0,0],"id":117,"left_children":[1,3,-1,-1,5,-1,-1],"loss_changes":[1.2412574E2,1.4296074E0,0E0,0E0,5.008316E-2,0E0,0E0],"parents":[2147483647,0,0,1,1,4,4],"right_children":[2,4,-1,-1,6,-1,-1],"split_conditions":[1.332E3,7.014677E0,5.0618738E-2,3.1293795E-2,1.5523637E1,-5.02094E-2,-1.1869107E-2],"split_indices":[1,3,0,0,3,0,0],"split_type":[0,0,0,0,0,0,0],"sum_hessian":[4.937262E2,2.4923419E2,2.44492E2,1.5520513E0,2.4768214E2,2.4662419E2,1.0579462E0],"tree_param":{"num_deleted":"0","num_feature":"16","num_nodes":"7","size_leaf_vector":"1"}},{"base_weights":[-4.432526E-4,5.024354E-1,-5.020836E-2,-7.559517E-3,5.0622363E-2],"categories":[],"categories_nodes":[],"categories_segments":[],"categories_sizes":[],"default_left":[0,0,0,0,0],"id":118,"left_children":[1,3,-1,-1,-1],"loss_changes":[1.2488953E2,5.7963943E-1,0E0,0E0,0E0],"parents":[2147483647,0,0,1,1],"right_children":[2,4,-1,-1,-1],"split_conditions":[7E0,3.08E2,-5.020836E-2,-7.559517E-3,5.0622363E-2],"split_indices":[0,11,0,0,0],"split_type":[0,0,0,0,0],"sum_hessian":[4.9307428E2,2.4623245E2,2.4684184E2,1.4798133E0,2.4475264E2],"tree_param":{"num_deleted":"0","num_feature":"16","num_nodes":"5","size_leaf_vector":"1"}},{"base_weights":[-5.468683E-4,-5.020861E-2,5.028487E-1,5.817068E-3,5.0621856E-2],"categories":[],"categories_nodes":[],"categories_segments":[],"categories_sizes":[],"default_left":[0,0,0,0,0],"id":119,"left_children":[1,-1,3,-1,-1],"loss_changes":[1.2492632E2,0E0,3.406067E-1,0E0,0E0],"parents":[2147483647,0,0,2,2],"right_children":[2,-1,4,-1,-1],"split_conditions":[9.157107E0,-5.020861E-2,7.73326E-1,5.817068E-3,5.0621856E-2],"split_indices":[6,0,14,0,0],"split_type":[0,0,0,0,0],"sum_hessian":[4.9281137E2,2.4686215E2,2.4594922E2,1.9871829E0,2.4396204E2],"tree_param":{"num_deleted":"0","num_feature":"16","num_nodes":"5","size_leaf_vector":"1"}},{"base_weights":[1.0448925E-3,-4.9369556E-1,5.0517675E-2,3.054302E-2,-5.0024366E-1,-5.0149597E-2,-1.1114379E-2],"categories":[],"categories_nodes":[],"categories_segments":[],"categories_sizes":[],"default_left":[0,0,0,0,0,0,0],"id":120,"left_children":[1,3,-1,-1,5,-1,-1],"loss_changes":[1.1218567E2,1.3406906E0,0E0,0E0,5.416107E-2,0E0,0E0],"parents":[2147483647,0,0,1,1,4,4],"right_children":[2,4,-1,-1,6,-1,-1],"split_conditions":[1.332E3,7.014677E0,5.0517675E-2,3.054302E-2,1.5523637E1,-5.0149597E-2,-1.1114379E-2],"split_indices":[1,3,0,0,3,0,0],"split_type":[0,0,0,0,0,0,0],"sum_hessian":[4.4779626E2,2.2601366E2,2.217826E2,1.4659443E0,2.2454771E2,2.2353938E2,1.0083274E0],"tree_param":{"num_deleted":"0","num_feature":"16","num_nodes":"7","size_leaf_vector":"1"}},{"base_weights":[-5.0864444E-4,5.011738E-1,-5.0148465E-2,-7.607137E-3,5.052206E-2],"categories":[],"categories_nodes":[],"categories_segments":[],"categories_sizes":[],"default_left":[0,0,0,0,0],"id":121,"left_children":[1,3,-1,-1,-1],"loss_changes":[1.12878105E2,5.626373E-1,0E0,0E0,0E0],"parents":[2147483647,0,0,1,1],"right_children":[2,4,-1,-1,-1],"split_conditions":[7E0,3.08E2,-5.0148465E-2,-7.607137E-3,5.052206E-2],"split_indices":[0,11,0,0,0],"split_type":[0,0,0,0,0],"sum_hessian":[4.4712155E2,2.2340308E2,2.2371848E2,1.4313818E0,2.219717E2],"tree_param":{"num_deleted":"0","num_feature":"16","num_nodes":"5","size_leaf_vector":"1"}},{"base_weights":[-5.3756585E-4,-5.0148703E-2,5.016657E-1,5.5248532E-3,5.0521594E-2],"categories":[],"categories_nodes":[],"categories_segments":[],"categories_sizes":[],"default_left":[0,0,0,0,0],"id":122,"left_children":[1,-1,3,-1,-1],"loss_changes":[1.1293543E2,0E0,3.2738113E-1,0E0,0E0],"parents":[2147483647,0,0,2,2],"right_children":[2,-1,4,-1,-1],"split_conditions":[9.157107E0,-5.0148703E-2,7.73326E-1,5.5248532E-3,5.0521594E-2],"split_indices":[6,0,14,0,0],"split_type":[0,0,0,0,0],"sum_hessian":[4.4690747E2,2.2373375E2,2.2317374E2,1.8915211E0,2.2128221E2],"tree_param":{"num_deleted":"0","num_feature":"16","num_nodes":"5","size_leaf_vector":"1"}},{"base_weights":[1.1044238E-3,-4.9274084E-1,5.042213E-2,2.9802471E-2,-4.9955525E-2],"categories":[],"categories_nodes":[],"categories_segments":[],"categories_sizes":[],"default_left":[0,0,0,0,0],"id":123,"left_children":[1,3,-1,-1,-1],"loss_changes":[1.0139915E2,1.2586784E0,0E0,0E0,0E0],"parents":[2147483647,0,0,1,1],"right_children":[2,4,-1,-1,-1],"split_conditions":[1.332E3,7.014677E0,5.042213E-2,2.9802471E-2,-4.9955525E-2],"split_indices":[1,3,0,0,0],"split_type":[0,0,0,0,0],"sum_hessian":[4.0610757E2,2.0495256E2,2.01155E2,1.385968E0,2.0356659E2],"tree_param":{"num_deleted":"0","num_feature":"16","num_nodes":"5","size_leaf_vector":"1"}},{"base_weights":[-5.7814136E-4,4.999473E-1,-5.0090183E-2,-8.074262E-3,5.0429936E-2],"categories":[],"categories_nodes":[],"categories_segments":[],"categories_sizes":[],"default_left":[0,0,0,0,0],"id":124,"left_children":[1,3,-1,-1,-1],"loss_changes":[1.0202763E2,5.5542374E-1,0E0,0E0,0E0],"parents":[2147483647,0,0,1,1],"right_children":[2,4,-1,-1,-1],"split_conditions":[7E0,1.03917E-1,-5.0090183E-2,-8.074262E-3,5.0429936E-2],"split_indices":[0,14,0,0,0],"split_type":[0,0,0,0,0],"sum_hessian":[4.0541833E2,2.0266869E2,2.0274965E2,1.3770453E0,2.0129164E2],"tree_param":{"num_deleted":"0","num_feature":"16","num_nodes":"5","size_leaf_vector":"1"}},{"base_weights":[-5.281626E-4,-5.009041E-2,5.005294E-1,5.2475836E-3,5.042692E-2],"categories":[],"categories_nodes":[],"categories_segments":[],"categories_sizes":[],"default_left":[0,0,0,0,0],"id":125,"left_children":[1,-1,3,-1,-1],"loss_changes":[1.02103294E2,0E0,3.1451035E-1,0E0,0E0],"parents":[2147483647,0,0,2,2],"right_children":[2,-1,4,-1,-1],"split_conditions":[9.157107E0,-5.009041E-2,7.73326E-1,5.2475836E-3,5.042692E-2],"split_indices":[6,0,14,0,0],"split_type":[0,0,0,0,0],"sum_hessian":[4.0524503E2,2.0276057E2,2.0248444E2,1.8005277E0,2.006839E2],"tree_param":{"num_deleted":"0","num_feature":"16","num_nodes":"5","size_leaf_vector":"1"}},{"base_weights":[1.1934821E-3,-4.916523E-1,5.033898E-2,2.8958369E-2,-4.9863812E-1,-1.9153671E-2,-5.003324E-2],"categories":[],"categories_nodes":[],"categories_segments":[],"categories_sizes":[],"default_left":[0,0,0,0,0,0,0],"id":126,"left_children":[1,3,-1,-1,5,-1,-1],"loss_changes":[9.164706E1,1.1643181E0,0E0,0E0,7.324219E-4,0E0,0E0],"parents":[2147483647,0,0,1,1,4,4],"right_children":[2,4,-1,-1,6,-1,-1],"split_conditions":[3.6E2,3.08E2,5.033898E-2,2.8958369E-2,1.68789E-1,-1.9153671E-2,-5.003324E-2],"split_indices":[12,1,0,0,13,0,0],"split_type":[0,0,0,0,0,0,0],"sum_hessian":[3.682832E2,1.8588258E2,1.824006E2,1.2889005E0,1.8459369E2,1.6385841E0,1.8295511E2],"tree_param":{"num_deleted":"0","num_feature":"16","num_nodes":"7","size_leaf_vector":"1"}},{"base_weights":[-6.476488E-4,4.9871153E-1,-5.0032943E-2,-8.502609E-3,5.0337423E-2],"categories":[],"categories_nodes":[],"categories_segments":[],"categories_sizes":[],"default_left":[0,0,0,0,0],"id":127,"left_children":[1,3,-1,-1,-1],"loss_changes":[9.222263E1,5.45948E-1,0E0,0E0,0E0],"parents":[2147483647,0,0,1,1],"right_children":[2,4,-1,-1,-1],"split_conditions":[7E0,3.08E2,-5.0032943E-2,-8.502609E-3,5.0337423E-2],"split_indices":[0,11,0,0,0],"split_type":[0,0,0,0,0],"sum_hessian":[3.6759915E2,1.838599E2,1.8373924E2,1.3203927E0,1.825395E2],"tree_param":{"num_deleted":"0","num_feature":"16","num_nodes":"5","size_leaf_vector":"1"}},{"base_weights":[-5.474324E-4,-5.003319E-2,4.9942875E-1,4.985514E-3,5.0336774E-2],"categories":[],"categories_nodes":[],"categories_segments":[],"categories_sizes":[],"default_left":[0,0,0,0,0],"id":128,"left_children":[1,-1,3,-1,-1],"loss_changes":[9.2316475E1,0E0,3.0196E-1,0E0,0E0],"parents":[2147483647,0,0,2,2],"right_children":[2,-1,4,-1,-1],"split_conditions":[9.157107E0,-5.003319E-2,7.73326E-1,4.985514E-3,5.0336774E-2],"split_indices":[6,0,14,0,0],"split_type":[0,0,0,0,0],"sum_hessian":[3.6744272E2,1.8375624E2,1.8368648E2,1.7140291E0,1.8197246E2],"tree_param":{"num_deleted":"0","num_feature":"16","num_nodes":"5","size_leaf_vector":"1"}},{"base_weights":[1.2521199E-3,-4.9081153E-1,5.0245076E-2,2.86434E-2,-4.9834237E-2],"categories":[],"categories_nodes":[],"categories_segments":[],"categories_sizes":[],"default_left":[0,0,0,0,0],"id":129,"left_children":[1,3,-1,-1,-1],"loss_changes":[8.2860435E1,1.1350975E0,0E0,0E0,0E0],"parents":[2147483647,0,0,1,1],"right_children":[2,4,-1,-1,-1],"split_conditions":[1.332E3,3.1009E-2,5.0245076E-2,2.86434E-2,-4.9834237E-2],"split_indices":[1,14,0,0,0],"split_type":[0,0,0,0,0],"sum_hessian":[3.3398206E2,1.6853731E2,1.6544476E2,1.2619195E0,1.6727538E2],"tree_param":{"num_deleted":"0","num_feature":"16","num_nodes":"5","size_leaf_vector":"1"}},{"base_weights":[-6.742452E-4,4.9756008E-1,-4.9976237E-2,-8.660346E-3,5.0253537E-2],"categories":[],"categories_nodes":[],"categories_segments":[],"categories_sizes":[],"default_left":[0,0,0,0,0],"id":130,"left_children":[1,3,-1,-1,-1],"loss_changes":[8.337918E1,5.3120804E-1,0E0,0E0,0E0],"parents":[2147483647,0,0,1,1],"right_children":[2,4,-1,-1,-1],"split_conditions":[7E0,1.03917E-1,-4.9976237E-2,-8.660346E-3,5.0253537E-2],"split_indices":[0,14,0,0,0],"split_type":[0,0,0,0,0],"sum_hessian":[3.333102E2,1.667993E2,1.665109E2,1.2700603E0,1.6552924E2],"tree_param":{"num_deleted":"0","num_feature":"16","num_nodes":"5","size_leaf_vector":"1"}},{"base_weights":[-5.7874114E-4,-4.997643E-2,4.9833184E-1,4.6569603E-3,5.025023E-2],"categories":[],"categories_nodes":[],"categories_segments":[],"categories_sizes":[],"default_left":[0,0,0,0,0],"id":131,"left_children":[1,-1,3,-1,-1],"loss_changes":[8.346391E1,0E0,2.923851E-1,0E0,0E0],"parents":[2147483647,0,0,2,2],"right_children":[2,-1,4,-1,-1],"split_conditions":[9.157107E0,-4.997643E-2,7.73326E-1,4.6569603E-3,5.025023E-2],"split_indices":[6,0,14,0,0],"split_type":[0,0,0,0,0],"sum_hessian":[3.3313055E2,1.6651854E2,1.6661203E2,1.6352861E0,1.6497675E2],"tree_param":{"num_deleted":"0","num_feature":"16","num_nodes":"5","size_leaf_vector":"1"}},{"base_weights":[1.3544778E-3,-4.896666E-1,5.016927E-2,2.7650923E-2,-4.973475E-1,-1.75932E-2,-4.9919408E-2],"categories":[],"categories_nodes":[],"categories_segments":[],"categories_sizes":[],"default_left":[0,0,0,0,0,0,0],"id":132,"left_children":[1,3,-1,-1,5,-1,-1],"loss_changes":[7.489633E1,1.0429878E0,0E0,0E0,2.8038025E-3,0E0,0E0],"parents":[2147483647,0,0,1,1,4,4],"right_children":[2,4,-1,-1,6,-1,-1],"split_conditions":[3.6E2,3.08E2,5.016927E-2,2.7650923E-2,1.68789E-1,-1.75932E-2,-4.9919408E-2],"split_indices":[12,1,0,0,13,0,0],"split_type":[0,0,0,0,0,0,0],"sum_hessian":[3.0285742E2,1.5286266E2,1.4999477E2,1.1698498E0,1.5169281E2,1.4164573E0,1.5027635E2],"tree_param":{"num_deleted":"0","num_feature":"16","num_nodes":"7","size_leaf_vector":"1"}},{"base_weights":[-7.5024535E-4,4.9641356E-1,-4.991942E-2,-8.971037E-3,5.016773E-2],"categories":[],"categories_nodes":[],"categories_segments":[],"categories_sizes":[],"default_left":[0,0,0,0,0],"id":133,"left_children":[1,3,-1,-1,-1],"loss_changes":[7.538124E1,5.1485443E-1,0E0,0E0,0E0],"parents":[2147483647,0,0,1,1],"right_children":[2,4,-1,-1,-1],"split_conditions":[7E0,3.08E2,-4.991942E-2,-8.971037E-3,5.016773E-2],"split_indices":[0,11,0,0,0],"split_type":[0,0,0,0,0],"sum_hessian":[3.0219177E2,1.512922E2,1.5089957E2,1.2038064E0,1.500884E2],"tree_param":{"num_deleted":"0","num_feature":"16","num_nodes":"5","size_leaf_vector":"1"}},{"base_weights":[-6.0439366E-4,-4.9919598E-2,4.9727494E-1,4.424524E-3,5.0166544E-2],"categories":[],"categories_nodes":[],"categories_segments":[],"categories_sizes":[],"default_left":[0,0,0,0,0],"id":134,"left_children":[1,-1,3,-1,-1],"loss_changes":[7.547248E1,0E0,2.8037643E-1,0E0,0E0],"parents":[2147483647,0,0,2,2],"right_children":[2,-1,4,-1,-1],"split_conditions":[9.157107E0,-4.9919598E-2,7.73326E-1,4.424524E-3,5.0166544E-2],"split_indices":[6,0,14,0,0],"split_type":[0,0,0,0,0],"sum_hessian":[3.0203223E2,1.5090685E2,1.5112537E2,1.5568832E0,1.495685E2],"tree_param":{"num_deleted":"0","num_feature":"16","num_nodes":"5","size_leaf_vector":"1"}},{"base_weights":[1.4220581E-3,-4.8878384E-1,5.0079234E-2,2.7333716E-2,-4.970586E-2],"categories":[],"categories_nodes":[],"categories_segments":[],"categories_sizes":[],"default_left":[0,0,0,0,0],"id":135,"left_children":[1,3,-1,-1,-1],"loss_changes":[6.7720695E1,1.0162659E0,0E0,0E0,0E0],"parents":[2147483647,0,0,1,1],"right_children":[2,4,-1,-1,-1],"split_conditions":[1.332E3,3.1009E-2,5.0079234E-2,2.7333716E-2,-4.970586E-2],"split_indices":[1,14,0,0,0],"split_type":[0,0,0,0,0],"sum_hessian":[2.746434E2,1.3860411E2,1.3603928E2,1.144677E0,1.3745943E2],"tree_param":{"num_deleted":"0","num_feature":"16","num_nodes":"5","size_leaf_vector":"1"}},{"base_weights":[-7.823887E-4,4.9526915E-1,-4.9861994E-2,-8.951221E-3,5.0088394E-2],"categories":[],"categories_nodes":[],"categories_segments":[],"categories_sizes":[],"default_left":[0,0,0,0,0],"id":136,"left_children":[1,3,-1,-1,-1],"loss_changes":[6.815762E1,4.9874878E-1,0E0,0E0,0E0],"parents":[2147483647,0,0,1,1],"right_children":[2,4,-1,-1,-1],"split_conditions":[7E0,1.03917E-1,-4.9861994E-2,-8.951221E-3,5.0088394E-2],"split_indices":[0,14,0,0,0],"split_type":[0,0,0,0,0],"sum_hessian":[2.7399423E2,1.3724588E2,1.3674835E2,1.163126E0,1.3608276E2],"tree_param":{"num_deleted":"0","num_feature":"16","num_nodes":"5","size_leaf_vector":"1"}},{"base_weights":[-6.401774E-4,-4.9862117E-2,4.962002E-1,4.1236053E-3,5.008473E-2],"categories":[],"categories_nodes":[],"categories_segments":[],"categories_sizes":[],"default_left":[0,0,0,0,0],"id":137,"left_children":[1,-1,3,-1,-1],"loss_changes":[6.824086E1,0E0,2.712555E-1,0E0,0E0],"parents":[2147483647,0,0,2,2],"right_children":[2,-1,4,-1,-1],"split_conditions":[9.157107E0,-4.9862117E-2,7.73326E-1,4.1236053E-3,5.008473E-2],"split_indices":[6,0,14,0,0],"split_type":[0,0,0,0,0],"sum_hessian":[2.7381308E2,1.3674777E2,1.370653E2,1.4856826E0,1.3557962E2],"tree_param":{"num_deleted":"0","num_feature":"16","num_nodes":"5","size_leaf_vector":"1"}},{"base_weights":[1.5377509E-3,-4.8755097E-1,5.000749E-2,2.6388053E-2,-4.960191E-1,-1.6089987E-2,-4.980303E-2],"categories":[],"categories_nodes":[],"categories_segments":[],"categories_sizes":[],"default_left":[0,0,0,0,0,0,0],"id":138,"left_children":[1,3,-1,-1,5,-1,-1],"loss_changes":[6.1213604E1,9.372864E-1,0E0,0E0,4.5661926E-3,0E0,0E0],"parents":[2147483647,0,0,1,1,4,4],"right_children":[2,4,-1,-1,6,-1,-1],"split_conditions":[3.6E2,3.08E2,5.000749E-2,2.6388053E-2,1.68789E-1,-1.6089987E-2,-4.980303E-2],"split_indices":[12,1,0,0,13,0,0],"split_type":[0,0,0,0,0,0,0],"sum_hessian":[2.4905153E2,1.257282E2,1.23323326E2,1.0649674E0,1.2466324E2,1.2269348E0,1.234363E2],"tree_param":{"num_deleted":"0","num_feature":"16","num_nodes":"7","size_leaf_vector":"1"}},{"base_weights":[-8.7435346E-4,4.9410942E-1,-4.9803372E-2,-9.372847E-3,5.000592E-2],"categories":[],"categories_nodes":[],"categories_segments":[],"categories_sizes":[],"default_left":[0,0,0,0,0],"id":139,"left_children":[1,3,-1,-1,-1],"loss_changes":[6.162236E1,4.8573685E-1,0E0,0E0,0E0],"parents":[2147483647,0,0,1,1],"right_children":[2,4,-1,-1,-1],"split_conditions":[7E0,3.08E2,-4.9803372E-2,-9.372847E-3,5.000592E-2],"split_indices":[0,11,0,0,0],"split_type":[0,0,0,0,0],"sum_hessian":[2.4841005E2,1.2448046E2,1.2392959E2,1.0994651E0,1.23381E2],"tree_param":{"num_deleted":"0","num_feature":"16","num_nodes":"5","size_leaf_vector":"1"}},{"base_weights":[-6.6779525E-4,-4.9803477E-2,4.9515188E-1,3.9181276E-3,5.0004136E-2],"categories":[],"categories_nodes":[],"categories_segments":[],"categories_sizes":[],"default_left":[0,0,0,0,0],"id":140,"left_children":[1,-1,3,-1,-1],"loss_changes":[6.1712475E1,0E0,2.5979996E-1,0E0,0E0],"parents":[2147483647,0,0,2,2],"right_children":[2,-1,4,-1,-1],"split_conditions":[9.157107E0,-4.9803477E-2,7.73326E-1,3.9181276E-3,5.0004136E-2],"split_indices":[6,0,14,0,0],"split_type":[0,0,0,0,0],"sum_hessian":[2.4824896E2,1.2392887E2,1.2432008E2,1.4145961E0,1.22905495E2],"tree_param":{"num_deleted":"0","num_feature":"16","num_nodes":"5","size_leaf_vector":"1"}},{"base_weights":[1.6180897E-3,-4.8659828E-1,4.991799E-2,2.6069904E-2,-4.9571496E-2],"categories":[],"categories_nodes":[],"categories_segments":[],"categories_sizes":[],"default_left":[0,0,0,0,0],"id":141,"left_children":[1,3,-1,-1,-1],"loss_changes":[5.5351517E1,9.127903E-1,0E0,0E0,0E0],"parents":[2147483647,0,0,1,1],"right_children":[2,4,-1,-1,-1],"split_conditions":[1.332E3,3.1009E-2,4.991799E-2,2.6069904E-2,-4.9571496E-2],"split_indices":[1,14,0,0,0],"split_type":[0,0,0,0,0],"sum_hessian":[2.2586115E2,1.1401231E2,1.1184884E2,1.0415293E0,1.1297078E2],"tree_param":{"num_deleted":"0","num_feature":"16","num_nodes":"5","size_leaf_vector":"1"}},{"base_weights":[-9.165451E-4,4.92934E-1,-4.9743026E-2,-9.187855E-3,4.992789E-2],"categories":[],"categories_nodes":[],"categories_segments":[],"categories_sizes":[],"default_left":[0,0,0,0,0],"id":142,"left_children":[1,3,-1,-1,-1],"loss_changes":[5.5719215E1,4.6860123E-1,0E0,0E0,0E0],"parents":[2147483647,0,0,1,1],"right_children":[2,4,-1,-1,-1],"split_conditions":[7E0,1.03917E-1,-4.9743026E-2,-9.187855E-3,4.992789E-2],"split_indices":[0,14,0,0,0],"split_type":[0,0,0,0,0],"sum_hessian":[2.2523657E2,1.1292474E2,1.1231183E2,1.0673375E0,1.1185741E2],"tree_param":{"num_deleted":"0","num_feature":"16","num_nodes":"5","size_leaf_vector":"1"}},{"base_weights":[-7.086331E-4,-4.974307E-2,4.940648E-1,3.6424024E-3,4.9923804E-2],"categories":[],"categories_nodes":[],"categories_segments":[],"categories_sizes":[],"default_left":[0,0,0,0,0],"id":143,"left_children":[1,-1,3,-1,-1],"loss_changes":[5.580258E1,0E0,2.5112534E-1,0E0,0E0],"parents":[2147483647,0,0,2,2],"right_children":[2,-1,4,-1,-1],"split_conditions":[9.157107E0,-4.974307E-2,7.73326E-1,3.6424024E-3,4.9923804E-2],"split_indices":[6,0,14,0,0],"split_type":[0,0,0,0,0],"sum_hessian":[2.2505678E2,1.1230455E2,1.1275223E2,1.3501924E0,1.1140203E2],"tree_param":{"num_deleted":"0","num_feature":"16","num_nodes":"5","size_leaf_vector":"1"}},{"base_weights":[1.7488233E-3,-4.8524886E-1,4.984724E-2,1.8996483E-2,-4.945947E-1,-1.42532205E-2,-4.9678955E-2],"categories":[],"categories_nodes":[],"categories_segments":[],"categories_sizes":[],"default_left":[0,0,0,0,0,0,0],"id":144,"left_children":[1,3,-1,-1,5,-1,-1],"loss_changes":[5.003309E1,7.530155E-1,0E0,0E0,9.0065E-3,0E0,0E0],"parents":[2147483647,0,0,1,1,4,4],"right_children":[2,4,-1,-1,6,-1,-1],"split_conditions":[3.6E2,1.03917E-1,4.984724E-2,1.8996483E-2,2.03582E-1,-1.42532205E-2,-4.9678955E-2],"split_indices":[12,14,0,0,14,0,0],"split_type":[0,0,0,0,0,0,0],"sum_hessian":[2.0483109E2,1.0343977E2,1.0139131E2,